/*!
 * The following copyright notice may not be removed under any circumstances.
 * 
 * Copyright:
 * Copyright (c) 2008 by Jos Buivenga. All rights reserved.
 * 
 * Trademark:
 * Museo Sans is a trademark of Jos Buivenga.
 * 
 * Full name:
 * MuseoSans-100
 * 
 * Description:
 * Spaced and kerned with iKern.
 * 
 * Manufacturer:
 * Jos Buivenga
 * 
 * Designer:
 * Jos Buivenga
 * 
 * Vendor URL:
 * http://www.josbuivenga.demon.nl
 */
Cufon.registerFont({"w":581,"face":{"font-family":"Museo Sans 100","font-weight":250,"font-stretch":"normal","units-per-em":"1000","panose-1":"2 0 0 0 0 0 0 0 0 0","ascent":"750","descent":"-250","x-height":"12","bbox":"-54 -874 971.514 210.213","underline-thickness":"50","underline-position":"-50","stemh":"40","stemv":"43","unicode-range":"U+0020-U+021B"},"glyphs":{" ":{"w":277},"!":{"d":"126,-175r0,-525r43,0r0,525r-43,0xm119,0r0,-61r59,0r0,61r-59,0","w":295},"\"":{"d":"176,-558r0,-151r43,0r0,151r-43,0xm72,-558r0,-151r43,0r0,151r-43,0","w":291},"#":{"d":"169,0r35,-199r-152,0r7,-40r152,0r39,-221r-152,0r7,-40r152,0r35,-200r43,0r-35,200r189,0r35,-200r43,0r-35,200r149,0r-7,40r-149,0r-39,221r149,0r-7,40r-149,0r-35,199r-43,0r35,-199r-189,0r-35,199r-43,0xm254,-239r189,0r39,-221r-189,0","w":733},"$":{"d":"66,-75r29,-33v0,0,71,78,187,78v87,0,156,-54,156,-138v0,-194,-361,-149,-361,-363v0,-86,71,-167,182,-179r0,-95r43,0r0,94v105,4,163,64,163,64r-24,37v0,0,-60,-60,-153,-60v-104,0,-166,70,-166,138v0,180,361,133,361,362v0,95,-69,172,-181,181r0,93r-43,0r0,-93v-125,-8,-193,-86,-193,-86","w":548},"%":{"d":"193,-451v-72,0,-130,-58,-130,-130v0,-72,58,-131,130,-131v72,0,131,59,131,131v0,72,-59,130,-131,130xm61,0r531,-700r52,0r-531,700r-52,0xm193,-491v50,0,88,-40,88,-90v0,-50,-38,-91,-88,-91v-50,0,-87,41,-87,91v0,50,37,90,87,90xm379,-118v0,-72,58,-131,130,-131v72,0,131,59,131,131v0,72,-59,130,-131,130v-72,0,-130,-58,-130,-130xm422,-118v0,50,37,90,87,90v50,0,88,-40,88,-90v0,-50,-38,-91,-88,-91v-50,0,-87,41,-87,91","w":702},"&":{"d":"65,-191v0,-84,50,-162,132,-190v0,0,-101,-29,-101,-157v0,-100,74,-174,204,-174v30,0,74,10,74,10r-14,38v0,0,-37,-8,-63,-8v-88,0,-156,51,-156,133v0,50,19,141,171,141r163,0r0,-102r43,0r0,102r97,0r0,40r-97,0r0,112v0,178,-90,258,-223,258v-135,0,-230,-87,-230,-203xm110,-193v0,90,68,163,185,163v107,0,180,-59,180,-216r0,-112r-161,0v-140,0,-204,68,-204,165","w":666},"'":{"d":"72,-558r0,-151r43,0r0,151r-43,0","w":187},"(":{"d":"193,95v-68,-119,-110,-274,-110,-430v0,-144,40,-274,110,-390r44,0v-154,245,-146,565,0,820r-44,0","w":277},")":{"d":"84,95r-44,0v146,-255,154,-575,0,-820r44,0v153,230,136,587,0,820","w":277},"*":{"d":"141,-344r-36,-25r99,-132r-156,-47r13,-42r155,54r-5,-164r47,0r-5,164r156,-53r14,41r-157,47v30,47,66,87,98,132r-35,26r-93,-134r-2,0","w":470},"+":{"d":"85,-263r0,-40r237,0r0,-263r43,0r0,263r236,0r0,40r-236,0r0,263r-43,0r0,-263r-237,0","w":686},",":{"d":"45,94r53,-155r56,0r-67,155r-42,0","w":241},"-":{"d":"40,-263r0,-40r276,0r0,40r-276,0","w":356},".":{"d":"88,0r0,-63r61,0r0,63r-61,0","w":237},"\/":{"d":"47,42r253,-782r44,0r-253,782r-44,0","w":384},"0":{"d":"311,12v-178,0,-236,-159,-236,-362v0,-202,58,-362,236,-362v178,0,236,160,236,362v0,203,-58,362,-236,362xm311,-30v149,0,191,-139,191,-320v0,-180,-42,-320,-191,-320v-149,0,-191,140,-191,320v0,181,42,320,191,320","w":622},"1":{"d":"56,0r0,-40r159,0r1,-605v-6,-1,-7,11,-39,43r-83,83r-30,-29r151,-152r43,0r0,660r155,0r0,40r-357,0","w":442},"2":{"d":"66,0v-40,-281,371,-297,370,-520v0,-84,-62,-150,-163,-150v-112,0,-170,100,-170,100r-32,-22v0,0,63,-120,203,-120v138,0,207,92,207,192v0,239,-372,269,-372,480r383,0r0,40r-426,0","w":557},"3":{"d":"49,-85r32,-32v0,0,73,87,188,87v89,0,175,-69,175,-172v0,-126,-107,-178,-235,-167r-12,-30r196,-229v16,-21,32,-29,31,-34r-341,2r0,-40r401,0r0,30r-226,261v84,0,231,42,231,207v0,120,-101,214,-222,214v-133,0,-218,-97,-218,-97","w":556},"4":{"d":"36,-200r0,-30r363,-470r40,0r0,460r104,0r0,40r-104,0r0,200r-43,0r0,-200r-360,0xm96,-240r300,0r0,-328v-2,-29,7,-65,1,-63v0,0,-17,25,-35,48","w":588},"5":{"d":"59,-89r35,-27v0,0,48,86,162,86v109,0,194,-78,194,-183v0,-106,-85,-185,-194,-185v-80,0,-136,42,-136,42r-32,-11r40,-333r325,0r0,40r-287,0r-32,252v6,1,47,-32,122,-32v134,0,239,101,239,227v0,126,-107,225,-239,225v-136,0,-197,-101,-197,-101","w":554},"6":{"d":"316,12v-155,0,-245,-148,-245,-327v0,-171,85,-397,301,-397v72,0,122,28,122,28r-21,39v0,0,-43,-25,-103,-25v-163,0,-244,168,-254,322r2,0v39,-59,116,-96,198,-96v123,0,215,87,215,223v0,152,-100,233,-215,233xm315,-30v108,0,171,-80,171,-191v0,-112,-71,-181,-172,-181v-108,0,-194,76,-194,139v0,97,76,233,195,233","w":592},"7":{"d":"105,0r292,-595v17,-38,38,-62,37,-67r-395,2r0,-40r443,0r0,30r-332,670r-45,0","w":507},"8":{"d":"69,-200v0,-128,125,-198,125,-198v-53,-32,-91,-75,-91,-143v0,-88,70,-171,206,-171v130,0,208,73,208,177v0,108,-87,191,-94,198v59,33,103,77,103,150v0,110,-99,199,-225,199v-116,0,-232,-74,-232,-212xm481,-186v0,-105,-137,-136,-246,-189v-14,7,-121,68,-121,175v0,107,93,170,187,170v89,0,180,-64,180,-156xm148,-541v0,104,128,134,235,184v12,-11,89,-83,89,-178v0,-83,-68,-135,-163,-135v-101,0,-161,58,-161,129","w":601},"9":{"d":"220,12v-72,0,-122,-28,-122,-28r21,-39v0,0,43,25,103,25v163,0,244,-168,254,-322r-2,0v-39,59,-116,96,-198,96v-123,0,-215,-87,-215,-223v0,-152,100,-233,215,-233v155,0,245,148,245,327v0,171,-85,397,-301,397xm278,-298v108,0,194,-76,194,-139v0,-97,-76,-233,-195,-233v-108,0,-171,80,-171,191v0,112,71,181,172,181","w":592},":":{"d":"118,-441r0,-59r57,0r0,59r-57,0xm118,0r0,-59r57,0r0,59r-57,0","w":293},";":{"d":"121,-441r0,-59r57,0r0,59r-57,0xm76,94r45,-155r52,0r-56,155r-41,0","w":293},"<":{"d":"54,-265r0,-36r439,-197r0,48r-377,166r0,2r377,166r0,48","w":563},"=":{"d":"124,-343r0,-40r456,0r0,40r-456,0xm124,-183r0,-40r456,0r0,40r-456,0","w":704},">":{"d":"70,-68r0,-48r377,-166r0,-2r-377,-166r0,-48r439,197r0,36","w":563},"?":{"d":"162,-175r0,-44v0,-164,179,-177,179,-322v0,-72,-59,-129,-146,-129v-73,0,-127,42,-127,42r-23,-34v0,0,59,-50,149,-50v115,0,192,74,192,172v0,166,-181,178,-181,321r0,44r-43,0xm154,0r0,-61r59,0r0,61r-59,0","w":469},"@":{"d":"70,-243v0,-202,157,-365,346,-365v172,0,232,88,232,177r0,344r70,0r0,40r-265,0v-107,0,-193,-87,-193,-194v0,-107,86,-196,193,-196r150,0v-3,-67,-49,-131,-181,-131v-173,0,-307,145,-307,325v0,181,134,323,307,323r0,42v-195,0,-352,-162,-352,-365xm305,-241v0,85,68,154,153,154r145,0r0,-310r-143,0v-87,0,-155,71,-155,156","w":788},"A":{"d":"542,0r-91,-242r-297,0r-90,242r-46,0r262,-700r46,0r262,700r-46,0xm330,-566v-13,-31,-22,-86,-28,-84v-33,114,-92,255,-133,368r267,0","w":606},"B":{"d":"108,0r0,-700r235,0v102,0,177,68,177,175v0,78,-41,125,-91,155v69,19,119,87,119,177v0,117,-83,193,-195,193r-245,0xm151,-388r191,0v78,0,133,-54,133,-137v0,-82,-52,-135,-134,-135r-190,0r0,272xm151,-40r198,0v94,0,154,-58,154,-153v0,-95,-65,-155,-155,-155r-197,0r0,308","w":619},"C":{"d":"61,-355v0,-203,150,-357,347,-357v166,0,250,88,250,88r-26,32v0,0,-83,-79,-223,-79v-172,0,-303,135,-303,316v0,182,130,326,306,326v150,0,237,-95,237,-95r27,30v0,0,-94,106,-264,106v-204,0,-351,-164,-351,-367","w":734},"D":{"d":"108,0r0,-700r220,0v208,0,349,128,349,350v0,223,-141,350,-349,350r-220,0xm151,-40r170,0v186,0,311,-109,311,-310v0,-200,-125,-310,-311,-310r-170,0r0,620","w":741},"E":{"d":"108,0r0,-700r383,0r0,40r-340,0r0,287r279,0r0,40r-279,0r0,293r359,0r0,40r-402,0","w":571},"F":{"d":"108,0r0,-700r353,0r0,40r-310,0r0,292r268,0r0,40r-268,0r0,328r-43,0","w":508},"G":{"d":"61,-350v0,-202,151,-362,349,-362v158,0,244,79,244,79r-26,33v0,0,-84,-71,-218,-71v-176,0,-304,140,-304,321v0,182,125,321,298,321v150,0,240,-115,240,-115r0,-135r-125,0r0,-40r168,0r0,319r-43,0v-2,-29,5,-66,-1,-91v0,0,-84,103,-239,103v-195,0,-343,-159,-343,-362","w":757},"H":{"d":"108,0r0,-700r43,0r0,329r444,0r0,-329r43,0r0,700r-43,0r0,-331r-444,0r0,331r-43,0","w":746},"I":{"d":"108,0r0,-700r43,0r0,700r-43,0","w":259},"J":{"d":"82,-213v-10,114,55,185,144,184v69,0,144,-40,144,-161r0,-470r-167,0r0,-40r210,0r0,509v0,150,-96,203,-187,203v-97,0,-196,-66,-187,-225r43,0","w":513},"K":{"d":"108,0r0,-700r43,0r0,312r130,0r200,-312r52,0r-215,332r229,368r-52,0r-214,-348r-130,0r0,348r-43,0","w":580},"L":{"d":"108,0r0,-700r43,0r0,660r334,0r0,40r-377,0","w":509},"M":{"d":"88,0r56,-700r42,0r204,440v18,35,30,81,36,79v0,0,18,-45,34,-79r204,-440r42,0r56,700r-43,0r-43,-534v-5,-35,1,-95,-5,-93v-58,156,-155,338,-224,492r-44,0r-187,-399v-17,-34,-33,-97,-39,-95v0,0,0,61,-3,95r-43,534r-43,0","w":850},"N":{"d":"108,0r0,-700r40,0r399,549v26,32,54,89,59,88v-11,-190,-2,-434,-5,-637r43,0r0,700r-40,0r-399,-549v-26,-32,-54,-89,-59,-88v11,190,2,434,5,637r-43,0","w":752},"O":{"d":"59,-355v0,-201,159,-357,354,-357v195,0,354,156,354,357v0,206,-159,367,-354,367v-195,0,-354,-161,-354,-367xm104,-355v0,184,138,326,309,326v171,0,309,-142,309,-326v0,-179,-138,-316,-309,-316v-171,0,-309,137,-309,316","w":826},"P":{"d":"108,0r0,-700r230,0v122,0,213,77,213,204v0,127,-91,206,-213,206r-187,0r0,290r-43,0xm151,-330r185,0v102,0,170,-61,170,-166v0,-105,-68,-164,-170,-164r-185,0r0,330","w":592},"Q":{"d":"60,-354v0,-202,157,-358,352,-358v198,0,356,156,356,358v0,95,-35,185,-92,249r90,93r-28,27r-89,-92v-63,57,-145,89,-237,89v-195,0,-352,-163,-352,-366xm105,-354v0,182,134,325,307,325v73,0,153,-28,208,-78r-90,-93r28,-27r89,92v47,-57,76,-136,76,-219v0,-181,-135,-317,-311,-317v-173,0,-307,136,-307,317","w":839},"R":{"d":"108,0r0,-700v105,4,265,-13,331,21v58,29,97,88,97,168v0,103,-62,172,-140,195v0,0,7,8,16,25r157,291r-51,0r-166,-310r-201,0r0,310r-43,0xm491,-511v0,-97,-51,-149,-180,-149r-160,0r0,310r190,0v92,0,150,-66,150,-161","w":621},"S":{"d":"56,-75r29,-33v0,0,71,78,187,78v87,0,156,-54,156,-138v0,-199,-358,-144,-358,-363v0,-93,83,-181,210,-181v114,0,178,65,178,65r-24,37v0,0,-60,-60,-153,-60v-104,0,-166,70,-166,138v0,185,358,128,358,362v0,101,-78,182,-203,182v-138,0,-214,-87,-214,-87","w":530},"T":{"d":"269,0r0,-660r-261,0r0,-40r565,0r0,40r-261,0r0,660r-43,0"},"U":{"d":"98,-240r0,-460r43,0r0,458v0,132,86,213,218,213v132,0,219,-81,219,-215r0,-456r43,0r0,460v0,154,-107,252,-261,252v-154,0,-262,-98,-262,-252","w":719},"V":{"d":"279,0r-262,-700r46,0r211,566v14,34,23,86,29,84v0,0,15,-51,27,-84r212,-566r46,0r-262,700r-47,0","w":605},"W":{"d":"460,-639r-4,0v0,0,-14,66,-27,111r-148,528r-54,0r-184,-700r45,0r148,570v11,35,13,77,19,75r179,-645r48,0r179,645r2,0v0,0,8,-41,17,-75r153,-570r45,0r-189,700r-54,0r-148,-528v-13,-45,-27,-111,-27,-111","w":919},"X":{"d":"30,0r226,-370r-201,-330r52,0r180,301v6,1,23,-42,45,-78r135,-223r52,0r-203,330r227,370r-51,0r-207,-341v-6,-1,-22,39,-44,76r-160,265r-51,0","w":573},"Y":{"d":"257,0r0,-304r-238,-396r49,0r166,276v22,35,40,80,45,79v55,-106,146,-247,209,-355r49,0r-237,396r0,304r-43,0","w":556},"Z":{"d":"44,0r0,-34r385,-562v24,-39,49,-61,48,-66r-412,2r0,-40r464,0r0,34r-385,562v-24,39,-49,61,-48,66r436,-2r0,40r-488,0","w":586},"[":{"d":"112,95r0,-820r108,0r0,40r-65,0r0,740r65,0r0,40r-108,0","w":267},"\\":{"d":"293,42r-253,-782r44,0r253,782r-44,0","w":384},"]":{"d":"47,55r65,0r0,-740r-65,0r0,-40r108,0r0,820r-108,0r0,-40","w":267},"^":{"d":"77,-252r197,-448r32,0r197,448r-46,0r-167,-388r-167,388r-46,0","w":600},"_":{"d":"40,0r496,0r0,40r-496,0r0,-40","w":576},"`":{"d":"272,-750r-79,-111r56,0r67,111r-44,0","w":509},"a":{"d":"47,-133v0,-170,221,-172,310,-172r33,0v5,-117,-52,-166,-137,-166v-87,0,-143,48,-143,48r-24,-34v0,0,60,-55,169,-55v115,0,177,64,177,189r0,323r-42,0v-3,-28,4,-103,2,-111v1,0,-45,123,-175,123v-81,0,-170,-45,-170,-145xm91,-136v0,53,43,109,128,109v117,0,178,-119,171,-239r-32,0v-85,0,-267,0,-267,130","w":513},"b":{"d":"88,0r0,-700r42,0r0,260v2,24,-8,42,-2,41v0,0,43,-113,181,-113v134,0,216,107,216,262v0,159,-93,262,-224,262v-129,0,-169,-115,-175,-113v4,8,5,77,4,101r-42,0xm129,-249v0,111,57,220,174,220v98,0,178,-81,178,-221v0,-135,-72,-221,-174,-221v-92,0,-178,65,-178,222","w":579},"c":{"d":"53,-249v0,-159,119,-263,258,-263v119,0,179,71,179,71r-26,34v0,0,-57,-64,-153,-64v-117,0,-214,87,-214,222v0,133,97,220,214,220v110,0,167,-72,167,-72r22,35v0,0,-65,78,-189,78v-141,0,-258,-102,-258,-261","w":551},"d":{"d":"55,-250v0,-159,93,-262,224,-262v129,0,169,115,175,113v-9,-84,-2,-207,-4,-301r42,0r0,700r-42,0v-3,-26,4,-92,2,-101v0,0,-43,113,-181,113v-134,0,-216,-107,-216,-262xm99,-250v0,135,72,221,174,221v92,0,178,-65,178,-222v0,-111,-57,-220,-174,-220v-98,0,-178,81,-178,221","w":580},"e":{"d":"53,-249v0,-169,115,-263,243,-263v144,0,215,118,202,255r-401,0v0,145,98,228,214,228v96,0,155,-63,155,-63r23,35v0,0,-70,69,-178,69v-141,0,-258,-102,-258,-261xm100,-296r356,0v-5,-122,-78,-177,-161,-177v-92,0,-177,60,-195,177","w":553},"f":{"d":"109,0r0,-459r-63,0r0,-38r63,0r0,-23v0,-165,108,-185,158,-185v16,0,26,2,26,2r0,39v-65,-7,-134,3,-142,143r0,24r137,0r0,38r-137,0r0,459r-42,0","w":305},"g":{"d":"119,134v0,0,62,35,134,35v107,0,190,-51,190,-172v0,-26,5,-91,2,-99v-30,61,-85,102,-168,102v-130,0,-222,-102,-222,-258v0,-156,85,-254,215,-254v145,0,170,99,176,98v-5,-17,-2,-61,-3,-86r42,0r0,497v0,219,-229,254,-386,174xm280,-41v88,0,164,-55,164,-217v0,-161,-76,-213,-174,-213v-107,0,-171,78,-171,213v0,135,74,217,181,217","w":573},"h":{"d":"340,-471v-114,0,-210,90,-210,227r0,244r-42,0r0,-700r42,0r0,288v2,24,-8,42,-2,41v17,-47,87,-141,212,-141v130,0,165,77,165,195r0,317r-42,0r0,-302v0,-87,-11,-169,-123,-169","w":586},"i":{"d":"84,-627r0,-73r50,0r0,73r-50,0xm88,0r0,-500r42,0r0,500r-42,0","w":218},"j":{"d":"88,-500r42,0r0,520v0,166,-108,185,-159,185v-15,0,-25,-2,-25,-2r0,-39v64,7,142,-3,142,-143r0,-521xm84,-627r0,-73r50,0r0,73r-50,0","w":218},"k":{"d":"88,0r0,-700r42,0r0,397r89,0r162,-197r55,0r-181,217r198,283r-53,0r-181,-264r-89,0r0,264r-42,0","w":480},"l":{"d":"83,-101r0,-599r42,0r0,586v4,78,35,80,74,77r0,39v-48,6,-116,-1,-116,-103","w":230},"m":{"d":"320,-473v-109,0,-190,102,-190,229r0,244r-42,0r0,-500r42,0r0,88v2,24,-8,42,-2,41v25,-75,114,-141,192,-141v103,0,144,52,160,136v28,-70,104,-136,190,-136v129,0,167,76,167,195r0,317r-42,0r0,-302v0,-94,-19,-171,-125,-171v-106,0,-186,102,-186,229r0,244r-42,0r0,-302v0,-86,-12,-171,-122,-171","w":918},"n":{"d":"340,-471v-114,0,-210,90,-210,227r0,244r-42,0r0,-500r42,0r0,88v2,24,-8,42,-2,41v17,-47,87,-141,212,-141v130,0,165,77,165,195r0,317r-42,0r0,-302v0,-87,-11,-169,-123,-169","w":586},"o":{"d":"51,-253v0,-146,116,-259,259,-259v143,0,259,113,259,259v0,149,-116,265,-259,265v-143,0,-259,-116,-259,-265xm95,-253v0,127,96,224,215,224v119,0,215,-97,215,-224v0,-124,-96,-218,-215,-218v-119,0,-215,94,-215,218","w":620},"p":{"d":"88,200r0,-700r42,0v1,32,-6,72,-1,100v0,0,41,-112,180,-112v134,0,216,107,216,262v0,159,-93,262,-222,262v-133,0,-171,-115,-177,-113v9,84,2,207,4,301r-42,0xm129,-249v0,111,62,220,174,220v98,0,178,-81,178,-221v0,-135,-72,-221,-174,-221v-92,0,-178,65,-178,222","w":579},"q":{"d":"55,-250v0,-159,93,-262,224,-262v129,0,168,114,174,112v-3,-12,-3,-75,-3,-100r42,0r0,700r-42,0r0,-257v-2,-27,8,-45,2,-44v0,0,-43,113,-181,113v-134,0,-216,-107,-216,-262xm99,-250v0,135,72,221,174,221v92,0,178,-65,178,-222v0,-111,-57,-220,-174,-220v-98,0,-178,81,-178,221","w":580},"r":{"d":"317,-459v-128,-17,-187,117,-187,243r0,216r-42,0r0,-500r42,0r0,95v2,24,-8,42,-2,41v29,-85,89,-154,189,-137r0,42","w":338},"s":{"d":"45,-60r27,-32v0,0,56,63,155,63v61,0,115,-32,115,-94v0,-127,-275,-91,-275,-254v0,-89,75,-135,160,-135v102,0,148,54,148,54r-25,34v0,0,-41,-47,-126,-47v-57,0,-113,26,-113,91v0,130,275,91,275,257v0,80,-68,135,-160,135v-121,0,-181,-72,-181,-72","w":436},"t":{"d":"104,-181r0,-278r-66,0r0,-38r66,0r0,-142r42,0r0,142r131,0r0,38r-131,0r0,275v8,143,76,154,142,147r0,39v0,0,-10,2,-25,2v-52,0,-159,-19,-159,-185","w":314},"u":{"d":"81,-183r0,-317r42,0r0,302v0,87,11,169,123,169v125,0,205,-110,205,-227r0,-244r42,0r0,500r-42,0r0,-88v-2,-24,8,-42,2,-41v-17,47,-86,141,-207,141v-123,0,-165,-68,-165,-195"},"v":{"d":"215,0r-197,-500r45,0r154,392v11,25,13,56,19,54v49,-150,116,-300,171,-446r44,0r-196,500r-40,0","w":469},"w":{"d":"197,0r-176,-500r45,0r153,446r156,-444r47,0r154,444r155,-446r45,0r-176,500r-45,0r-139,-388v-11,-25,-13,-56,-19,-54r-155,442r-45,0","w":797},"x":{"d":"29,0r180,-264r-161,-236r51,0r138,210v10,-6,13,-19,19,-28r121,-182r51,0r-161,236r180,264r-52,0r-156,-236v-6,-1,-9,12,-20,29r-138,207r-52,0","w":476},"y":{"d":"8,182r19,-36v0,0,28,24,62,24v80,0,103,-110,134,-173r-207,-497r45,0r183,446r184,-446r45,0r-257,617v-22,52,-64,93,-127,93v-48,0,-81,-28,-81,-28","w":489},"z":{"d":"44,0r0,-34r303,-381v18,-26,40,-43,39,-48r-329,2r0,-39r386,0r0,34r-304,381v-18,26,-41,43,-40,48r355,-2r0,39r-410,0","w":501},"{":{"d":"140,-88r0,-94v0,-107,-85,-119,-85,-119r0,-40v0,0,85,-12,85,-119r0,-81v6,-175,97,-184,145,-183r0,39v-35,0,-97,7,-102,143r0,93v0,100,-80,123,-79,129v0,0,79,26,79,127r0,106v4,136,68,143,102,143r0,39v-47,4,-139,-8,-145,-183","w":325},"|":{"d":"111,155r0,-940r43,0r0,940r-43,0","w":265},"}":{"d":"40,56v35,0,97,-7,102,-143r0,-106v0,-104,80,-123,79,-129v0,0,-79,-30,-79,-127r0,-93v-4,-136,-68,-143,-102,-143r0,-39v50,-1,137,8,145,183r0,81v0,107,85,119,85,119r0,40v0,0,-85,12,-85,119r0,94v-6,175,-99,187,-145,183r0,-39","w":325},"~":{"d":"79,-213v0,-104,50,-144,115,-144v114,0,113,110,206,110v67,0,75,-72,75,-106r40,0v0,104,-50,144,-115,144v-114,0,-113,-110,-206,-110v-67,0,-75,72,-75,106r-40,0","w":592},"\u00a1":{"d":"109,200r0,-525r43,0r0,525r-43,0xm100,-439r0,-61r59,0r0,61r-59,0","w":261},"\u00a2":{"d":"274,13r0,-84v-141,-12,-209,-133,-209,-279v0,-146,68,-267,209,-279r0,-83r43,0r0,83v87,8,147,63,185,142r-41,16v-33,-69,-84,-116,-163,-116v-133,0,-188,106,-188,237v0,131,55,237,188,237v79,0,130,-47,163,-116r41,16v-38,79,-98,135,-185,142r0,84r-43,0","w":567},"\u00a3":{"d":"80,-333r0,-40r45,0r0,-162v0,-99,82,-177,197,-177v89,0,147,51,147,51r-29,33v0,0,-49,-42,-119,-42v-100,0,-153,65,-153,139r0,158r198,0r0,40r-198,0r0,293r351,0r0,40r-459,0r0,-40r65,0r0,-293r-45,0","w":585},"\u00a5":{"d":"115,-352r0,-40r110,0r-185,-308r49,0r166,276v22,35,40,80,45,79v55,-106,146,-247,209,-355r49,0r-185,308r108,0r0,40r-132,0r-28,48r0,42r160,0r0,40r-160,0r0,222r-43,0r0,-222r-163,0r0,-40r163,0r0,-42r-29,-48r-134,0","w":598},"\u00a7":{"d":"142,-62r-69,-499v0,-86,66,-151,158,-151v53,0,93,33,93,33r-26,32v0,0,-29,-24,-68,-24v-69,-1,-122,54,-111,134r65,475r-42,0xm63,29r26,-32v0,0,29,24,68,24v69,0,122,-53,111,-134r-65,-475r42,0r69,499v0,87,-67,151,-158,151v-53,0,-93,-33,-93,-33","w":390},"\u00a8":{"d":"300,-788r0,-73r46,0r0,73r-46,0xm163,-788r0,-73r46,0r0,73r-46,0","w":509},"\u00a9":{"d":"65,-350v0,-202,157,-362,352,-362v198,0,356,160,356,362v0,203,-158,362,-356,362v-195,0,-352,-159,-352,-362xm110,-350v0,181,134,320,307,320v176,0,311,-139,311,-320v0,-180,-135,-320,-311,-320v-173,0,-307,140,-307,320xm214,-349v0,-105,73,-211,215,-211v104,0,163,88,163,88r-33,29v0,0,-48,-74,-129,-74v-114,0,-171,83,-171,167v0,83,57,167,171,167v83,0,129,-74,129,-74r33,29v0,0,-60,88,-163,88v-143,0,-215,-104,-215,-209","w":838},"\u00aa":{"d":"201,-382v-54,0,-111,-29,-111,-93v0,-113,138,-111,208,-111v1,-62,-31,-88,-76,-87v-48,0,-86,29,-86,29r-22,-30v0,0,42,-36,109,-36v74,0,114,40,114,120r0,202r-39,0v-2,-16,4,-39,-2,-51v0,0,-30,57,-95,57xm202,-419v64,0,99,-67,96,-131v-56,0,-167,-3,-167,71v0,31,23,60,71,60xm87,-263r0,-37r253,0r0,37r-253,0","w":428},"\u00ab":{"d":"214,-282r164,-206r53,0r-164,206r164,205r-53,0xm218,-77r-164,-205r164,-206r53,0r-164,206r164,205r-53,0","w":491},"\u00ac":{"d":"90,-343r0,-40r456,0r0,219r-42,0r0,-179r-414,0","w":635},"\u00ae":{"d":"65,-350v0,-202,157,-362,352,-362v198,0,356,160,356,362v0,203,-158,362,-356,362v-195,0,-352,-159,-352,-362xm110,-350v0,181,134,320,307,320v176,0,311,-139,311,-320v0,-180,-135,-320,-311,-320v-173,0,-307,140,-307,320xm301,-150r0,-400r133,0v68,0,116,46,116,116v0,62,-40,94,-77,109v30,50,63,121,92,175r-49,0r-85,-167r-86,0r0,167r-44,0xm345,-355r84,0v46,0,76,-30,76,-79v0,-48,-30,-76,-76,-76r-84,0r0,155","w":838},"\u00af":{"d":"135,-786r0,-40r239,0r0,40r-239,0","w":509},"\u00b0":{"d":"185,-449v-72,0,-130,-58,-130,-130v0,-72,58,-131,130,-131v72,0,131,59,131,131v0,72,-59,130,-131,130xm185,-489v50,0,88,-40,88,-90v0,-50,-38,-91,-88,-91v-50,0,-87,41,-87,91v0,50,37,90,87,90","w":371},"\u00b1":{"d":"85,-263r0,-40r237,0r0,-263r43,0r0,263r236,0r0,40r-236,0r0,263r-43,0r0,-263r-237,0xm105,113r476,0r0,40r-476,0r0,-40","w":686},"\u00b2":{"d":"55,-423v-27,-185,219,-192,219,-321v0,-47,-36,-87,-91,-87v-57,0,-94,50,-94,50r-24,-26v0,0,42,-60,118,-60v86,0,130,58,130,123v0,150,-217,154,-221,285r229,0r0,36r-266,0","w":376},"\u00b3":{"d":"184,-413v-95,0,-138,-65,-138,-65r28,-26v0,0,35,55,111,55v49,0,103,-42,103,-101v0,-72,-64,-103,-139,-96r-11,-24r108,-127v12,-15,26,-22,25,-27v-53,6,-141,2,-202,3r0,-36r255,0r0,26r-128,150v54,4,131,35,131,131v0,77,-66,137,-143,137","w":376},"\u00b4":{"d":"193,-750r67,-111r56,0r-79,111r-44,0","w":509},"\u00b5":{"d":"93,200r0,-700r42,0r0,302v0,87,11,169,123,169v125,0,205,-110,205,-227r0,-244r42,0r0,500r-42,0v-2,-40,6,-88,0,-124v0,0,-52,136,-205,136v-101,0,-123,-52,-129,-51v8,57,6,167,6,239r-42,0","w":598},"\u03bc":{"d":"93,200r0,-700r42,0r0,302v0,87,11,169,123,169v125,0,205,-110,205,-227r0,-244r42,0r0,500r-42,0v-2,-40,6,-88,0,-124v0,0,-52,136,-205,136v-101,0,-123,-52,-129,-51v8,57,6,167,6,239r-42,0","w":598},"\u00b6":{"d":"294,50r0,-291v-129,0,-240,-101,-240,-230v0,-129,110,-229,239,-229r210,0r0,40r-167,0r0,710r-42,0xm398,50r0,-647r42,0r0,647r-42,0","w":551},"\u00b7":{"d":"106,-255r0,-63r61,0r0,63r-61,0","w":273},"\u00b8":{"d":"233,-18r32,5v-1,27,-8,48,-12,73v41,6,69,32,69,68v0,72,-79,84,-135,72r0,-38v0,0,18,5,41,5v27,0,54,-8,54,-37v0,-26,-33,-42,-73,-37","w":509},"\u00b9":{"d":"77,-423r0,-36r96,0r0,-347v-6,11,-52,55,-67,70r-26,-27r93,-94r38,0r0,398r93,0r0,36r-227,0","w":376},"\u00ba":{"d":"237,-383v-90,0,-163,-72,-163,-166v0,-91,73,-162,163,-162v90,0,163,71,163,162v0,94,-73,166,-163,166xm237,-420v69,0,124,-55,124,-129v0,-72,-55,-125,-124,-125v-69,0,-124,53,-124,125v0,74,55,129,124,129xm92,-263r0,-37r294,0r0,37r-294,0","w":476},"\u00bb":{"d":"220,-77r164,-205r-164,-206r53,0r164,206r-164,205r-53,0xm60,-77r164,-205r-164,-206r53,0r164,206r-164,205r-53,0","w":491},"\u00bc":{"d":"831,0r0,-121r-215,0r0,-26r222,-287r31,0r0,277r68,0r0,36r-68,0r0,121r-38,0xm671,-157r160,0r0,-147v-2,-29,7,-67,1,-65v-39,61,-116,147,-161,212xm133,-266r0,-36r96,0r0,-347v-6,11,-52,55,-67,70r-26,-27r93,-94r38,0r0,398r93,0r0,36r-227,0xm365,0r-44,0r336,-700r43,0","w":971},"\u00bd":{"d":"296,0r-44,0r336,-700r43,0xm64,-266r0,-36r96,0r0,-347v-6,11,-52,55,-67,70r-26,-27r93,-94r38,0r0,398r93,0r0,36r-227,0xm577,0v-27,-185,219,-192,219,-321v0,-47,-36,-87,-91,-87v-57,0,-94,50,-94,50r-24,-26v0,0,42,-60,118,-60v86,0,130,58,130,123v0,150,-217,154,-221,285r229,0r0,36r-266,0","w":919},"\u00be":{"d":"191,-256v-95,0,-138,-65,-138,-65r28,-26v0,0,35,55,111,55v49,0,103,-42,103,-101v0,-72,-64,-103,-139,-96r-11,-24r108,-127v12,-15,26,-22,25,-27v-53,6,-141,2,-202,3r0,-36r255,0r0,26r-128,150v54,4,131,35,131,131v0,77,-66,137,-143,137xm320,0r-44,0r336,-700r43,0xm786,0r0,-121r-215,0r0,-26r222,-287r31,0r0,277r68,0r0,36r-68,0r0,121r-38,0xm626,-157r160,0r0,-147v-2,-29,7,-67,1,-65v-39,61,-116,147,-161,212","w":955},"\u00bf":{"d":"48,38v0,-182,206,-174,181,-363r43,0v24,199,-179,212,-179,364v0,72,59,129,146,129v73,0,127,-42,127,-42r23,34v0,0,-59,50,-149,50v-115,0,-192,-74,-192,-172xm221,-439r0,-61r59,0r0,61r-59,0","w":429},"\u00c0":{"d":"542,0r-91,-242r-297,0r-90,242r-46,0r262,-700r46,0r262,700r-46,0xm330,-566v-13,-31,-22,-86,-28,-84v-33,114,-92,255,-133,368r267,0xm281,-750r-79,-111r56,0r67,111r-44,0","w":606},"\u00c1":{"d":"542,0r-91,-242r-297,0r-90,242r-46,0r262,-700r46,0r262,700r-46,0xm330,-566v-13,-31,-22,-86,-28,-84v-33,114,-92,255,-133,368r267,0xm280,-750r67,-111r56,0r-79,111r-44,0","w":606},"\u00c2":{"d":"542,0r-91,-242r-297,0r-90,242r-46,0r262,-700r46,0r262,700r-46,0xm330,-566v-13,-31,-22,-86,-28,-84v-33,114,-92,255,-133,368r267,0xm197,-750r80,-111r52,0r80,111r-49,0v-20,-26,-35,-57,-58,-80r-56,80r-49,0","w":606},"\u00c3":{"d":"542,0r-91,-242r-297,0r-90,242r-46,0r262,-700r46,0r262,700r-46,0xm330,-566v-13,-31,-22,-86,-28,-84v-33,114,-92,255,-133,368r267,0xm159,-753v0,-71,28,-108,83,-108v67,0,79,74,126,74v35,0,40,-48,40,-71r40,0v0,71,-28,108,-83,108v-67,0,-79,-74,-126,-74v-35,0,-40,48,-40,71r-40,0","w":606},"\u00c4":{"d":"542,0r-91,-242r-297,0r-90,242r-46,0r262,-700r46,0r262,700r-46,0xm330,-566v-13,-31,-22,-86,-28,-84v-33,114,-92,255,-133,368r267,0xm349,-788r0,-73r46,0r0,73r-46,0xm212,-788r0,-73r46,0r0,73r-46,0","w":606},"\u00c5":{"d":"542,0r-91,-242r-297,0r-90,242r-46,0r262,-700r46,0r262,700r-46,0xm330,-566v-13,-31,-22,-86,-28,-84v-33,114,-92,255,-133,368r267,0xm303,-740v-38,0,-67,-29,-67,-67v0,-38,29,-67,67,-67v38,0,67,29,67,67v0,38,-29,67,-67,67xm303,-775v19,0,32,-13,32,-32v0,-20,-13,-33,-32,-33v-19,0,-32,13,-32,33v0,19,13,32,32,32","w":606},"\u00c6":{"d":"16,0r287,-700r449,0r0,40r-340,0r0,287r279,0r0,40r-279,0r0,293r359,0r0,40r-402,0r0,-333r-171,0r-136,333r-46,0xm333,-660r-118,287r154,0r0,-287r-36,0","w":832},"\u00c7":{"d":"62,-355v0,-203,150,-357,347,-357v166,0,250,88,250,88r-26,32v0,0,-83,-79,-223,-79v-172,0,-303,135,-303,316v0,182,130,326,306,326v150,0,237,-95,237,-95r27,30v0,0,-92,103,-257,106r-9,48v41,6,69,32,69,68v0,72,-79,84,-135,72r0,-38v0,0,18,5,41,5v27,0,54,-8,54,-37v0,-26,-33,-42,-73,-37r17,-82v-189,-14,-322,-172,-322,-366","w":735},"\u00c8":{"d":"108,0r0,-700r383,0r0,40r-340,0r0,287r279,0r0,40r-279,0r0,293r359,0r0,40r-402,0xm290,-750r-79,-111r56,0r67,111r-44,0","w":571},"\u00c9":{"d":"108,0r0,-700r383,0r0,40r-340,0r0,287r279,0r0,40r-279,0r0,293r359,0r0,40r-402,0xm289,-750r67,-111r56,0r-79,111r-44,0","w":571},"\u00ca":{"d":"108,0r0,-700r383,0r0,40r-340,0r0,287r279,0r0,40r-279,0r0,293r359,0r0,40r-402,0xm206,-750r80,-111r52,0r80,111r-49,0v-20,-26,-35,-57,-58,-80r-56,80r-49,0","w":571},"\u00cb":{"d":"108,0r0,-700r383,0r0,40r-340,0r0,287r279,0r0,40r-279,0r0,293r359,0r0,40r-402,0xm358,-788r0,-73r46,0r0,73r-46,0xm221,-788r0,-73r46,0r0,73r-46,0","w":571},"\u00cc":{"d":"108,0r0,-700r43,0r0,700r-43,0xm108,-750r-79,-111r56,0r67,111r-44,0","w":259},"\u00cd":{"d":"108,0r0,-700r43,0r0,700r-43,0xm107,-750r67,-111r56,0r-79,111r-44,0","w":259},"\u00ce":{"d":"108,0r0,-700r43,0r0,700r-43,0xm24,-750r80,-111r52,0r80,111r-49,0v-20,-26,-35,-57,-58,-80r-56,80r-49,0","w":259},"\u00cf":{"d":"108,0r0,-700r43,0r0,700r-43,0xm176,-788r0,-73r46,0r0,73r-46,0xm39,-788r0,-73r46,0r0,73r-46,0","w":259},"\u00d0":{"d":"60,-333r0,-40r60,0r0,-327r220,0v208,0,349,128,349,350v0,223,-141,350,-349,350r-220,0r0,-333r-60,0xm163,-40r170,0v186,0,311,-109,311,-310v0,-200,-125,-310,-311,-310r-170,0r0,287r183,0r0,40r-183,0r0,293","w":753},"\u00d1":{"d":"108,0r0,-700r40,0r399,549v26,32,54,89,59,88v-11,-190,-2,-434,-5,-637r43,0r0,700r-40,0r-399,-549v-26,-32,-54,-89,-59,-88v11,190,2,434,5,637r-43,0xm232,-753v0,-71,28,-108,83,-108v67,0,79,74,126,74v35,0,40,-48,40,-71r40,0v0,71,-28,108,-83,108v-67,0,-79,-74,-126,-74v-35,0,-40,48,-40,71r-40,0","w":752},"\u00d2":{"d":"59,-355v0,-201,159,-357,354,-357v195,0,354,156,354,357v0,206,-159,367,-354,367v-195,0,-354,-161,-354,-367xm104,-355v0,184,138,326,309,326v171,0,309,-142,309,-326v0,-179,-138,-316,-309,-316v-171,0,-309,137,-309,316xm391,-750r-79,-111r56,0r67,111r-44,0","w":826},"\u00d3":{"d":"59,-355v0,-201,159,-357,354,-357v195,0,354,156,354,357v0,206,-159,367,-354,367v-195,0,-354,-161,-354,-367xm104,-355v0,184,138,326,309,326v171,0,309,-142,309,-326v0,-179,-138,-316,-309,-316v-171,0,-309,137,-309,316xm390,-750r67,-111r56,0r-79,111r-44,0","w":826},"\u00d4":{"d":"59,-355v0,-201,159,-357,354,-357v195,0,354,156,354,357v0,206,-159,367,-354,367v-195,0,-354,-161,-354,-367xm104,-355v0,184,138,326,309,326v171,0,309,-142,309,-326v0,-179,-138,-316,-309,-316v-171,0,-309,137,-309,316xm307,-750r80,-111r52,0r80,111r-49,0v-20,-26,-35,-57,-58,-80r-56,80r-49,0","w":826},"\u00d5":{"d":"59,-355v0,-201,159,-357,354,-357v195,0,354,156,354,357v0,206,-159,367,-354,367v-195,0,-354,-161,-354,-367xm104,-355v0,184,138,326,309,326v171,0,309,-142,309,-326v0,-179,-138,-316,-309,-316v-171,0,-309,137,-309,316xm269,-753v0,-71,28,-108,83,-108v67,0,79,74,126,74v35,0,40,-48,40,-71r40,0v0,71,-28,108,-83,108v-67,0,-79,-74,-126,-74v-35,0,-40,48,-40,71r-40,0","w":826},"\u00d6":{"d":"59,-355v0,-201,159,-357,354,-357v195,0,354,156,354,357v0,206,-159,367,-354,367v-195,0,-354,-161,-354,-367xm104,-355v0,184,138,326,309,326v171,0,309,-142,309,-326v0,-179,-138,-316,-309,-316v-171,0,-309,137,-309,316xm459,-788r0,-73r46,0r0,73r-46,0xm322,-788r0,-73r46,0r0,73r-46,0","w":826},"\u00d7":{"d":"78,-28r224,-255r-224,-255r28,-28r223,253r223,-253r28,28r-225,255r225,255r-28,28r-223,-253r-223,253","w":658},"\u00d8":{"d":"62,-355v0,-201,159,-357,354,-357v71,0,136,21,192,57r49,-69r34,25r-49,69v78,65,128,163,128,275v0,206,-159,367,-354,367v-71,0,-136,-21,-192,-58r-49,69r-35,-24r50,-70v-78,-67,-128,-168,-128,-284xm725,-355v0,-98,-42,-184,-108,-241r-369,516v48,33,106,51,168,51v171,0,309,-142,309,-326xm107,-355v0,101,42,190,108,249r368,-515v-48,-32,-105,-50,-167,-50v-171,0,-309,137,-309,316","w":831},"\u00d9":{"d":"98,-240r0,-460r43,0r0,458v0,132,86,213,218,213v132,0,219,-81,219,-215r0,-456r43,0r0,460v0,154,-107,252,-261,252v-154,0,-262,-98,-262,-252xm337,-750r-79,-111r56,0r67,111r-44,0","w":719},"\u00da":{"d":"98,-240r0,-460r43,0r0,458v0,132,86,213,218,213v132,0,219,-81,219,-215r0,-456r43,0r0,460v0,154,-107,252,-261,252v-154,0,-262,-98,-262,-252xm336,-750r67,-111r56,0r-79,111r-44,0","w":719},"\u00db":{"d":"98,-240r0,-460r43,0r0,458v0,132,86,213,218,213v132,0,219,-81,219,-215r0,-456r43,0r0,460v0,154,-107,252,-261,252v-154,0,-262,-98,-262,-252xm253,-750r80,-111r52,0r80,111r-49,0v-20,-26,-35,-57,-58,-80r-56,80r-49,0","w":719},"\u00dc":{"d":"98,-240r0,-460r43,0r0,458v0,132,86,213,218,213v132,0,219,-81,219,-215r0,-456r43,0r0,460v0,154,-107,252,-261,252v-154,0,-262,-98,-262,-252xm405,-788r0,-73r46,0r0,73r-46,0xm268,-788r0,-73r46,0r0,73r-46,0","w":719},"\u00dd":{"d":"257,0r0,-304r-238,-396r49,0r166,276v22,35,40,80,45,79v55,-106,146,-247,209,-355r49,0r-237,396r0,304r-43,0xm255,-750r67,-111r56,0r-79,111r-44,0","w":556},"\u00de":{"d":"108,0r0,-700r43,0r0,130r187,0v122,0,213,77,213,204v0,127,-91,206,-215,206r-185,0r0,160r-43,0xm151,-200r185,0v102,0,170,-61,170,-166v0,-105,-68,-164,-170,-164r-185,0r0,330","w":594},"\u00df":{"d":"88,0r0,-532v0,-117,95,-180,188,-180v104,0,161,69,161,138v0,109,-121,141,-121,206v0,73,211,113,211,240v0,91,-75,135,-154,135v-97,0,-154,-35,-154,-35r0,-46v0,0,63,40,155,40v57,0,109,-29,109,-94v0,-106,-211,-134,-211,-238v0,-90,121,-120,121,-208v0,-45,-39,-97,-119,-97v-71,0,-144,51,-144,142r0,529r-42,0","w":563},"\u00e0":{"d":"47,-133v0,-170,221,-172,310,-172r33,0v5,-117,-52,-166,-137,-166v-87,0,-143,48,-143,48r-24,-34v0,0,60,-55,169,-55v115,0,177,64,177,189r0,323r-42,0v-3,-28,4,-103,2,-111v1,0,-45,123,-175,123v-81,0,-170,-45,-170,-145xm91,-136v0,53,43,109,128,109v117,0,178,-119,171,-239r-32,0v-85,0,-267,0,-267,130xm233,-589r-79,-111r56,0r67,111r-44,0","w":513},"\u00e1":{"d":"47,-133v0,-170,221,-172,310,-172r33,0v5,-117,-52,-166,-137,-166v-87,0,-143,48,-143,48r-24,-34v0,0,60,-55,169,-55v115,0,177,64,177,189r0,323r-42,0v-3,-28,4,-103,2,-111v1,0,-45,123,-175,123v-81,0,-170,-45,-170,-145xm91,-136v0,53,43,109,128,109v117,0,178,-119,171,-239r-32,0v-85,0,-267,0,-267,130xm231,-589r67,-111r56,0r-79,111r-44,0","w":513},"\u00e2":{"d":"47,-133v0,-170,221,-172,310,-172r33,0v5,-117,-52,-166,-137,-166v-87,0,-143,48,-143,48r-24,-34v0,0,60,-55,169,-55v115,0,177,64,177,189r0,323r-42,0v-3,-28,4,-103,2,-111v1,0,-45,123,-175,123v-81,0,-170,-45,-170,-145xm91,-136v0,53,43,109,128,109v117,0,178,-119,171,-239r-32,0v-85,0,-267,0,-267,130xm149,-589r80,-111r52,0r80,111r-49,0v-20,-26,-35,-57,-58,-80r-56,80r-49,0","w":513},"\u00e3":{"d":"47,-133v0,-170,221,-172,310,-172r33,0v5,-117,-52,-166,-137,-166v-87,0,-143,48,-143,48r-24,-34v0,0,60,-55,169,-55v115,0,177,64,177,189r0,323r-42,0v-3,-28,4,-103,2,-111v1,0,-45,123,-175,123v-81,0,-170,-45,-170,-145xm91,-136v0,53,43,109,128,109v117,0,178,-119,171,-239r-32,0v-85,0,-267,0,-267,130xm111,-592v0,-71,28,-108,83,-108v67,0,79,74,126,74v35,0,40,-48,40,-71r40,0v0,71,-28,108,-83,108v-67,0,-79,-74,-126,-74v-35,0,-40,48,-40,71r-40,0","w":513},"\u00e4":{"d":"47,-133v0,-170,221,-172,310,-172r33,0v5,-117,-52,-166,-137,-166v-87,0,-143,48,-143,48r-24,-34v0,0,60,-55,169,-55v115,0,177,64,177,189r0,323r-42,0v-3,-28,4,-103,2,-111v1,0,-45,123,-175,123v-81,0,-170,-45,-170,-145xm91,-136v0,53,43,109,128,109v117,0,178,-119,171,-239r-32,0v-85,0,-267,0,-267,130xm301,-627r0,-73r46,0r0,73r-46,0xm164,-627r0,-73r46,0r0,73r-46,0","w":513},"\u00e5":{"d":"47,-133v0,-170,221,-172,310,-172r33,0v5,-117,-52,-166,-137,-166v-87,0,-143,48,-143,48r-24,-34v0,0,60,-55,169,-55v115,0,177,64,177,189r0,323r-42,0v-3,-28,4,-103,2,-111v1,0,-45,123,-175,123v-81,0,-170,-45,-170,-145xm91,-136v0,53,43,109,128,109v117,0,178,-119,171,-239r-32,0v-85,0,-267,0,-267,130xm255,-579v-38,0,-67,-29,-67,-67v0,-38,29,-67,67,-67v38,0,67,29,67,67v0,38,-29,67,-67,67xm255,-614v19,0,32,-13,32,-32v0,-20,-13,-33,-32,-33v-19,0,-32,13,-32,33v0,19,13,32,32,32","w":513},"\u00e6":{"d":"48,-133v0,-178,199,-166,342,-167v7,-119,-50,-171,-141,-171v-84,0,-139,48,-139,48r-24,-34v0,0,59,-55,165,-55v108,0,152,51,174,117v41,-78,113,-117,198,-117v142,0,213,114,200,251r-391,0v0,150,87,232,204,232v96,0,155,-63,155,-63r23,35v0,0,-70,69,-178,69v-106,0,-187,-61,-227,-153v-6,27,-52,153,-189,153v-91,0,-172,-49,-172,-145xm436,-300r345,0v-5,-122,-82,-172,-161,-172v-92,0,-167,57,-184,172xm92,-136v0,56,44,109,128,109v116,0,176,-118,170,-234r-69,0v-92,0,-229,7,-229,125","w":878},"\u00e7":{"d":"54,-249v0,-159,119,-263,258,-263v119,0,179,71,179,71r-26,34v0,0,-57,-64,-153,-64v-117,0,-214,87,-214,222v0,133,97,220,214,220v110,0,167,-72,167,-72r22,35v0,0,-64,76,-184,78r-9,48v41,6,69,32,69,68v0,72,-79,84,-135,72r0,-38v0,0,18,5,41,5v27,0,54,-8,54,-37v0,-26,-33,-42,-73,-37r18,-83v-128,-13,-228,-111,-228,-259","w":552},"\u00e8":{"d":"53,-249v0,-169,115,-263,243,-263v144,0,215,118,202,255r-401,0v0,145,98,228,214,228v96,0,155,-63,155,-63r23,35v0,0,-70,69,-178,69v-141,0,-258,-102,-258,-261xm100,-296r356,0v-5,-122,-78,-177,-161,-177v-92,0,-177,60,-195,177xm277,-589r-79,-111r56,0r67,111r-44,0","w":553},"\u00e9":{"d":"53,-249v0,-169,115,-263,243,-263v144,0,215,118,202,255r-401,0v0,145,98,228,214,228v96,0,155,-63,155,-63r23,35v0,0,-70,69,-178,69v-141,0,-258,-102,-258,-261xm100,-296r356,0v-5,-122,-78,-177,-161,-177v-92,0,-177,60,-195,177xm275,-589r67,-111r56,0r-79,111r-44,0","w":553},"\u00ea":{"d":"53,-249v0,-169,115,-263,243,-263v144,0,215,118,202,255r-401,0v0,145,98,228,214,228v96,0,155,-63,155,-63r23,35v0,0,-70,69,-178,69v-141,0,-258,-102,-258,-261xm100,-296r356,0v-5,-122,-78,-177,-161,-177v-92,0,-177,60,-195,177xm192,-589r80,-111r52,0r80,111r-49,0v-20,-26,-35,-57,-58,-80r-56,80r-49,0","w":553},"\u00eb":{"d":"53,-249v0,-169,115,-263,243,-263v144,0,215,118,202,255r-401,0v0,145,98,228,214,228v96,0,155,-63,155,-63r23,35v0,0,-70,69,-178,69v-141,0,-258,-102,-258,-261xm100,-296r356,0v-5,-122,-78,-177,-161,-177v-92,0,-177,60,-195,177xm344,-627r0,-73r46,0r0,73r-46,0xm207,-627r0,-73r46,0r0,73r-46,0","w":553},"\u00ec":{"d":"88,0r0,-500r42,0r0,500r-42,0xm88,-589r-79,-111r56,0r67,111r-44,0","w":218},"\u00ed":{"d":"88,0r0,-500r42,0r0,500r-42,0xm87,-589r67,-111r56,0r-79,111r-44,0","w":218},"\u00ee":{"d":"88,0r0,-500r42,0r0,500r-42,0xm4,-589r80,-111r52,0r80,111r-49,0v-20,-26,-35,-57,-58,-80r-56,80r-49,0","w":218},"\u00ef":{"d":"88,0r0,-500r42,0r0,500r-42,0xm156,-627r0,-73r46,0r0,73r-46,0xm19,-627r0,-73r46,0r0,73r-46,0","w":218},"\u00f0":{"d":"55,-230v0,-120,80,-238,241,-238v113,0,158,67,164,66v-26,-81,-74,-139,-137,-183r-172,80r-17,-37r146,-68v-45,-24,-97,-43,-153,-57r12,-38v59,15,127,37,188,74r123,-58r17,37r-101,47v88,67,156,176,156,335v0,133,-74,282,-242,282v-144,0,-225,-121,-225,-242xm99,-230v0,102,67,202,183,202v137,0,196,-129,196,-235v0,-95,-73,-165,-183,-165v-134,0,-196,100,-196,198","w":589},"\u00f1":{"d":"340,-471v-114,0,-210,90,-210,227r0,244r-42,0r0,-500r42,0r0,88v2,24,-8,42,-2,41v17,-47,87,-141,212,-141v130,0,165,77,165,195r0,317r-42,0r0,-302v0,-87,-11,-169,-123,-169xm164,-592v0,-71,28,-108,83,-108v67,0,79,74,126,74v35,0,40,-48,40,-71r40,0v0,71,-28,108,-83,108v-67,0,-79,-74,-126,-74v-35,0,-40,48,-40,71r-40,0","w":586},"\u00f2":{"d":"51,-253v0,-146,116,-259,259,-259v143,0,259,113,259,259v0,149,-116,265,-259,265v-143,0,-259,-116,-259,-265xm95,-253v0,127,96,224,215,224v119,0,215,-97,215,-224v0,-124,-96,-218,-215,-218v-119,0,-215,94,-215,218xm288,-589r-79,-111r56,0r67,111r-44,0","w":620},"\u00f3":{"d":"51,-253v0,-146,116,-259,259,-259v143,0,259,113,259,259v0,149,-116,265,-259,265v-143,0,-259,-116,-259,-265xm95,-253v0,127,96,224,215,224v119,0,215,-97,215,-224v0,-124,-96,-218,-215,-218v-119,0,-215,94,-215,218xm287,-589r67,-111r56,0r-79,111r-44,0","w":620},"\u00f4":{"d":"51,-253v0,-146,116,-259,259,-259v143,0,259,113,259,259v0,149,-116,265,-259,265v-143,0,-259,-116,-259,-265xm95,-253v0,127,96,224,215,224v119,0,215,-97,215,-224v0,-124,-96,-218,-215,-218v-119,0,-215,94,-215,218xm204,-589r80,-111r52,0r80,111r-49,0v-20,-26,-35,-57,-58,-80r-56,80r-49,0","w":620},"\u00f5":{"d":"51,-253v0,-146,116,-259,259,-259v143,0,259,113,259,259v0,149,-116,265,-259,265v-143,0,-259,-116,-259,-265xm95,-253v0,127,96,224,215,224v119,0,215,-97,215,-224v0,-124,-96,-218,-215,-218v-119,0,-215,94,-215,218xm166,-592v0,-71,28,-108,83,-108v67,0,79,74,126,74v35,0,40,-48,40,-71r40,0v0,71,-28,108,-83,108v-67,0,-79,-74,-126,-74v-35,0,-40,48,-40,71r-40,0","w":620},"\u00f6":{"d":"51,-253v0,-146,116,-259,259,-259v143,0,259,113,259,259v0,149,-116,265,-259,265v-143,0,-259,-116,-259,-265xm95,-253v0,127,96,224,215,224v119,0,215,-97,215,-224v0,-124,-96,-218,-215,-218v-119,0,-215,94,-215,218xm356,-627r0,-73r46,0r0,73r-46,0xm219,-627r0,-73r46,0r0,73r-46,0","w":620},"\u00f7":{"d":"302,-431r0,-59r57,0r0,59r-57,0xm93,-263r0,-40r476,0r0,40r-476,0xm302,-76r0,-59r57,0r0,59r-57,0","w":662},"\u00f8":{"d":"52,-253v0,-198,225,-328,397,-220r38,-53r34,26r-38,53v53,47,87,116,87,194v0,197,-215,332,-389,230r-37,52r-34,-26r36,-51v-58,-48,-94,-121,-94,-205xm96,-253v0,70,29,130,74,171r255,-357v-142,-88,-329,18,-329,186xm526,-253v0,-64,-26,-120,-68,-159r-253,355v146,82,321,-29,321,-196","w":622},"\u00f9":{"d":"81,-183r0,-317r42,0r0,302v0,87,11,169,123,169v125,0,205,-110,205,-227r0,-244r42,0r0,500r-42,0r0,-88v-2,-24,8,-42,2,-41v-17,47,-86,141,-207,141v-123,0,-165,-68,-165,-195xm266,-589r-79,-111r56,0r67,111r-44,0"},"\u00fa":{"d":"81,-183r0,-317r42,0r0,302v0,87,11,169,123,169v125,0,205,-110,205,-227r0,-244r42,0r0,500r-42,0r0,-88v-2,-24,8,-42,2,-41v-17,47,-86,141,-207,141v-123,0,-165,-68,-165,-195xm264,-589r67,-111r56,0r-79,111r-44,0"},"\u00fb":{"d":"81,-183r0,-317r42,0r0,302v0,87,11,169,123,169v125,0,205,-110,205,-227r0,-244r42,0r0,500r-42,0r0,-88v-2,-24,8,-42,2,-41v-17,47,-86,141,-207,141v-123,0,-165,-68,-165,-195xm181,-589r80,-111r52,0r80,111r-49,0v-20,-26,-35,-57,-58,-80r-56,80r-49,0"},"\u00fc":{"d":"81,-183r0,-317r42,0r0,302v0,87,11,169,123,169v125,0,205,-110,205,-227r0,-244r42,0r0,500r-42,0r0,-88v-2,-24,8,-42,2,-41v-17,47,-86,141,-207,141v-123,0,-165,-68,-165,-195xm333,-627r0,-73r46,0r0,73r-46,0xm196,-627r0,-73r46,0r0,73r-46,0"},"\u00fd":{"d":"8,182r19,-36v0,0,28,24,62,24v80,0,103,-110,134,-173r-207,-497r45,0r183,446r184,-446r45,0r-257,617v-22,52,-64,93,-127,93v-48,0,-81,-28,-81,-28xm222,-589r67,-111r56,0r-79,111r-44,0","w":489},"\u00fe":{"d":"88,200r0,-900r42,0r-1,295v7,1,37,-107,180,-107v134,0,216,107,216,262v0,159,-93,262,-222,262v-133,0,-169,-110,-175,-108r2,296r-42,0xm129,-249v0,111,62,221,174,221v98,0,178,-82,178,-222v0,-135,-72,-221,-174,-221v-92,0,-178,65,-178,222","w":579},"\u00ff":{"d":"8,182r19,-36v0,0,28,24,62,24v80,0,103,-110,134,-173r-207,-497r45,0r183,446r184,-446r45,0r-257,617v-22,52,-64,93,-127,93v-48,0,-81,-28,-81,-28xm291,-627r0,-73r46,0r0,73r-46,0xm154,-627r0,-73r46,0r0,73r-46,0","w":489},"\u0100":{"d":"542,0r-91,-242r-297,0r-90,242r-46,0r262,-700r46,0r262,700r-46,0xm330,-566v-13,-31,-22,-86,-28,-84v-33,114,-92,255,-133,368r267,0xm184,-786r0,-40r239,0r0,40r-239,0","w":606},"\u0101":{"d":"47,-133v0,-170,221,-172,310,-172r33,0v5,-117,-52,-166,-137,-166v-87,0,-143,48,-143,48r-24,-34v0,0,60,-55,169,-55v115,0,177,64,177,189r0,323r-42,0v-3,-28,4,-103,2,-111v1,0,-45,123,-175,123v-81,0,-170,-45,-170,-145xm91,-136v0,53,43,109,128,109v117,0,178,-119,171,-239r-32,0v-85,0,-267,0,-267,130xm136,-625r0,-40r239,0r0,40r-239,0","w":513},"\u0102":{"d":"542,0r-91,-242r-297,0r-90,242r-46,0r262,-700r46,0r262,700r-46,0xm330,-566v-13,-31,-22,-86,-28,-84v-33,114,-92,255,-133,368r267,0xm303,-747v-56,0,-108,-38,-101,-114r40,0v-5,51,23,76,61,76v36,0,66,-25,61,-76r40,0v6,76,-45,115,-101,114","w":606},"\u0103":{"d":"47,-133v0,-170,221,-172,310,-172r33,0v5,-117,-52,-166,-137,-166v-87,0,-143,48,-143,48r-24,-34v0,0,60,-55,169,-55v115,0,177,64,177,189r0,323r-42,0v-3,-28,4,-103,2,-111v1,0,-45,123,-175,123v-81,0,-170,-45,-170,-145xm91,-136v0,53,43,109,128,109v117,0,178,-119,171,-239r-32,0v-85,0,-267,0,-267,130xm255,-586v-56,0,-108,-38,-101,-114r40,0v-5,51,23,76,61,76v36,0,66,-25,61,-76r40,0v6,76,-45,115,-101,114","w":513},"\u0104":{"d":"463,113v0,-59,57,-104,77,-117r-89,-238r-297,0r-90,242r-46,0r262,-700r46,0r262,700v-23,17,-80,63,-80,109v0,50,68,56,68,56r-9,39v0,0,-104,-6,-104,-91xm330,-566v-13,-31,-22,-86,-28,-84v-33,114,-92,255,-133,368r267,0","w":606},"\u0105":{"d":"47,-133v0,-170,221,-172,310,-172r33,0v5,-117,-52,-166,-137,-166v-87,0,-143,48,-143,48r-24,-34v0,0,60,-55,169,-55v115,0,177,64,177,189r0,323v-23,17,-80,63,-80,109v0,50,68,56,68,56r-9,39v0,0,-104,-6,-104,-91v0,-69,77,-118,83,-121v-1,-31,6,-71,0,-98v1,0,-43,118,-173,118v-81,0,-170,-45,-170,-145xm91,-136v0,53,43,109,128,109v117,0,178,-119,171,-239r-32,0v-85,0,-267,0,-267,130","w":513},"\u0106":{"d":"61,-355v0,-203,150,-357,347,-357v166,0,250,88,250,88r-26,32v0,0,-83,-79,-223,-79v-172,0,-303,135,-303,316v0,182,130,326,306,326v150,0,237,-95,237,-95r27,30v0,0,-94,106,-264,106v-204,0,-351,-164,-351,-367xm380,-750r67,-111r56,0r-79,111r-44,0","w":734},"\u0107":{"d":"53,-249v0,-159,119,-263,258,-263v119,0,179,71,179,71r-26,34v0,0,-57,-64,-153,-64v-117,0,-214,87,-214,222v0,133,97,220,214,220v110,0,167,-72,167,-72r22,35v0,0,-65,78,-189,78v-141,0,-258,-102,-258,-261xm270,-589r67,-111r56,0r-79,111r-44,0","w":551},"\u0108":{"d":"61,-355v0,-203,150,-357,347,-357v166,0,250,88,250,88r-26,32v0,0,-83,-79,-223,-79v-172,0,-303,135,-303,316v0,182,130,326,306,326v150,0,237,-95,237,-95r27,30v0,0,-94,106,-264,106v-204,0,-351,-164,-351,-367xm297,-750r80,-111r52,0r80,111r-49,0v-20,-26,-35,-57,-58,-80r-56,80r-49,0","w":734},"\u0109":{"d":"53,-249v0,-159,119,-263,258,-263v119,0,179,71,179,71r-26,34v0,0,-57,-64,-153,-64v-117,0,-214,87,-214,222v0,133,97,220,214,220v110,0,167,-72,167,-72r22,35v0,0,-65,78,-189,78v-141,0,-258,-102,-258,-261xm187,-589r80,-111r52,0r80,111r-49,0v-20,-26,-35,-57,-58,-80r-56,80r-49,0","w":551},"\u010a":{"d":"61,-355v0,-203,150,-357,347,-357v166,0,250,88,250,88r-26,32v0,0,-83,-79,-223,-79v-172,0,-303,135,-303,316v0,182,130,326,306,326v150,0,237,-95,237,-95r27,30v0,0,-94,106,-264,106v-204,0,-351,-164,-351,-367xm380,-788r0,-73r46,0r0,73r-46,0","w":734},"\u010b":{"d":"53,-249v0,-159,119,-263,258,-263v119,0,179,71,179,71r-26,34v0,0,-57,-64,-153,-64v-117,0,-214,87,-214,222v0,133,97,220,214,220v110,0,167,-72,167,-72r22,35v0,0,-65,78,-189,78v-141,0,-258,-102,-258,-261xm270,-627r0,-73r46,0r0,73r-46,0","w":551},"\u010c":{"d":"61,-355v0,-203,150,-357,347,-357v166,0,250,88,250,88r-26,32v0,0,-83,-79,-223,-79v-172,0,-303,135,-303,316v0,182,130,326,306,326v150,0,237,-95,237,-95r27,30v0,0,-94,106,-264,106v-204,0,-351,-164,-351,-367xm377,-750r-80,-111r49,0v20,26,35,57,58,80r56,-80r49,0r-80,111r-52,0","w":734},"\u010d":{"d":"53,-249v0,-159,119,-263,258,-263v119,0,179,71,179,71r-26,34v0,0,-57,-64,-153,-64v-117,0,-214,87,-214,222v0,133,97,220,214,220v110,0,167,-72,167,-72r22,35v0,0,-65,78,-189,78v-141,0,-258,-102,-258,-261xm267,-589r-80,-111r49,0v20,26,35,57,58,80r56,-80r49,0r-80,111r-52,0","w":551},"\u010e":{"d":"108,0r0,-700r220,0v208,0,349,128,349,350v0,223,-141,350,-349,350r-220,0xm151,-40r170,0v186,0,311,-109,311,-310v0,-200,-125,-310,-311,-310r-170,0r0,620xm316,-750r-80,-111r49,0v20,26,35,57,58,80r56,-80r49,0r-80,111r-52,0","w":741},"\u010f":{"d":"55,-250v0,-159,93,-262,224,-262v129,0,169,115,175,113v-9,-84,-2,-207,-4,-301r42,0r0,700r-42,0v-3,-26,4,-92,2,-101v0,0,-43,113,-181,113v-134,0,-216,-107,-216,-262xm99,-250v0,135,72,221,174,221v92,0,178,-65,178,-222v0,-111,-57,-220,-174,-220v-98,0,-178,81,-178,221xm559,-700r48,0v12,52,5,87,-16,134r-39,0v19,-50,26,-83,7,-134","w":610},"\u0110":{"d":"60,-333r0,-40r60,0r0,-327r220,0v208,0,349,128,349,350v0,223,-141,350,-349,350r-220,0r0,-333r-60,0xm163,-40r170,0v186,0,311,-109,311,-310v0,-200,-125,-310,-311,-310r-170,0r0,287r183,0r0,40r-183,0r0,293","w":753},"\u0111":{"d":"317,-569r0,-40r133,0r0,-91r42,0r0,91r83,0r0,40r-83,0r0,569r-42,0v-1,-31,6,-69,0,-96v0,0,-41,108,-179,108v-134,0,-216,-107,-216,-262v0,-159,93,-262,224,-262v129,0,167,110,173,108v-3,-39,-2,-118,-2,-165r-133,0xm99,-250v0,135,72,221,174,221v92,0,178,-65,178,-222v0,-111,-57,-221,-174,-221v-98,0,-178,82,-178,222","w":580},"\u0112":{"d":"108,0r0,-700r383,0r0,40r-340,0r0,287r279,0r0,40r-279,0r0,293r359,0r0,40r-402,0xm193,-786r0,-40r239,0r0,40r-239,0","w":571},"\u0113":{"d":"53,-249v0,-169,115,-263,243,-263v144,0,215,118,202,255r-401,0v0,145,98,228,214,228v96,0,155,-63,155,-63r23,35v0,0,-70,69,-178,69v-141,0,-258,-102,-258,-261xm100,-296r356,0v-5,-122,-78,-177,-161,-177v-92,0,-177,60,-195,177xm179,-625r0,-40r239,0r0,40r-239,0","w":553},"\u0114":{"d":"108,0r0,-700r383,0r0,40r-340,0r0,287r279,0r0,40r-279,0r0,293r359,0r0,40r-402,0xm312,-747v-56,0,-108,-38,-101,-114r40,0v-5,51,23,76,61,76v36,0,66,-25,61,-76r40,0v6,76,-45,115,-101,114","w":571},"\u0115":{"d":"53,-249v0,-169,115,-263,243,-263v144,0,215,118,202,255r-401,0v0,145,98,228,214,228v96,0,155,-63,155,-63r23,35v0,0,-70,69,-178,69v-141,0,-258,-102,-258,-261xm100,-296r356,0v-5,-122,-78,-177,-161,-177v-92,0,-177,60,-195,177xm298,-586v-56,0,-108,-38,-101,-114r40,0v-5,51,23,76,61,76v36,0,66,-25,61,-76r40,0v6,76,-45,115,-101,114","w":553},"\u0116":{"d":"108,0r0,-700r383,0r0,40r-340,0r0,287r279,0r0,40r-279,0r0,293r359,0r0,40r-402,0xm289,-788r0,-73r46,0r0,73r-46,0","w":571},"\u0117":{"d":"53,-249v0,-169,115,-263,243,-263v144,0,215,118,202,255r-401,0v0,145,98,228,214,228v96,0,155,-63,155,-63r23,35v0,0,-70,69,-178,69v-141,0,-258,-102,-258,-261xm100,-296r356,0v-5,-122,-78,-177,-161,-177v-92,0,-177,60,-195,177xm275,-627r0,-73r46,0r0,73r-46,0","w":553},"\u0118":{"d":"108,0r0,-700r383,0r0,40r-340,0r0,287r279,0r0,40r-279,0r0,293r359,0r0,40v-23,17,-80,63,-80,109v0,50,68,56,68,56r-9,39v0,0,-104,-6,-104,-91v-1,-55,50,-91,71,-113r-348,0","w":571},"\u0119":{"d":"53,-249v0,-169,115,-263,243,-263v144,0,215,118,202,255r-401,0v0,145,98,228,214,228v96,0,155,-63,155,-63r23,35v-44,42,-154,92,-154,166v0,50,68,56,68,56r-9,39v0,0,-104,-6,-104,-91v0,-46,31,-77,53,-104v-162,20,-290,-90,-290,-258xm100,-296r356,0v-5,-122,-78,-177,-161,-177v-92,0,-177,60,-195,177","w":554},"\u011a":{"d":"108,0r0,-700r383,0r0,40r-340,0r0,287r279,0r0,40r-279,0r0,293r359,0r0,40r-402,0xm286,-750r-80,-111r49,0v20,26,35,57,58,80r56,-80r49,0r-80,111r-52,0","w":571},"\u011b":{"d":"53,-249v0,-169,115,-263,243,-263v144,0,215,118,202,255r-401,0v0,145,98,228,214,228v96,0,155,-63,155,-63r23,35v0,0,-70,69,-178,69v-141,0,-258,-102,-258,-261xm100,-296r356,0v-5,-122,-78,-177,-161,-177v-92,0,-177,60,-195,177xm272,-589r-80,-111r49,0v20,26,35,57,58,80r56,-80r49,0r-80,111r-52,0","w":553},"\u011c":{"d":"61,-350v0,-202,151,-362,349,-362v158,0,244,79,244,79r-26,33v0,0,-84,-71,-218,-71v-176,0,-304,140,-304,321v0,182,125,321,298,321v150,0,240,-115,240,-115r0,-135r-125,0r0,-40r168,0r0,319r-43,0v-2,-29,5,-66,-1,-91v0,0,-84,103,-239,103v-195,0,-343,-159,-343,-362xm293,-750r80,-111r52,0r80,111r-49,0v-20,-26,-35,-57,-58,-80r-56,80r-49,0","w":757},"\u011d":{"d":"119,134v0,0,62,35,134,35v107,0,190,-51,190,-172v0,-26,5,-91,2,-99v-30,61,-85,102,-168,102v-130,0,-222,-102,-222,-258v0,-156,85,-254,215,-254v145,0,170,99,176,98v-5,-17,-2,-61,-3,-86r42,0r0,497v0,219,-229,254,-386,174xm280,-41v88,0,164,-55,164,-217v0,-161,-76,-213,-174,-213v-107,0,-171,78,-171,213v0,135,74,217,181,217xm174,-589r80,-111r52,0r80,111r-49,0v-20,-26,-35,-57,-58,-80r-56,80r-49,0","w":573},"\u011e":{"d":"61,-350v0,-202,151,-362,349,-362v158,0,244,79,244,79r-26,33v0,0,-84,-71,-218,-71v-176,0,-304,140,-304,321v0,182,125,321,298,321v150,0,240,-115,240,-115r0,-135r-125,0r0,-40r168,0r0,319r-43,0v-2,-29,5,-66,-1,-91v0,0,-84,103,-239,103v-195,0,-343,-159,-343,-362xm399,-747v-56,0,-108,-38,-101,-114r40,0v-5,51,23,76,61,76v36,0,66,-25,61,-76r40,0v6,76,-45,115,-101,114","w":757},"\u011f":{"d":"119,134v0,0,62,35,134,35v107,0,190,-51,190,-172v0,-26,5,-91,2,-99v-30,61,-85,102,-168,102v-130,0,-222,-102,-222,-258v0,-156,85,-254,215,-254v145,0,170,99,176,98v-5,-17,-2,-61,-3,-86r42,0r0,497v0,219,-229,254,-386,174xm280,-41v88,0,164,-55,164,-217v0,-161,-76,-213,-174,-213v-107,0,-171,78,-171,213v0,135,74,217,181,217xm280,-586v-56,0,-108,-38,-101,-114r40,0v-5,51,23,76,61,76v36,0,66,-25,61,-76r40,0v6,76,-45,115,-101,114","w":573},"\u0120":{"d":"61,-350v0,-202,151,-362,349,-362v158,0,244,79,244,79r-26,33v0,0,-84,-71,-218,-71v-176,0,-304,140,-304,321v0,182,125,321,298,321v150,0,240,-115,240,-115r0,-135r-125,0r0,-40r168,0r0,319r-43,0v-2,-29,5,-66,-1,-91v0,0,-84,103,-239,103v-195,0,-343,-159,-343,-362xm376,-788r0,-73r46,0r0,73r-46,0","w":757},"\u0121":{"d":"119,134v0,0,62,35,134,35v107,0,190,-51,190,-172v0,-26,5,-91,2,-99v-30,61,-85,102,-168,102v-130,0,-222,-102,-222,-258v0,-156,85,-254,215,-254v145,0,170,99,176,98v-5,-17,-2,-61,-3,-86r42,0r0,497v0,219,-229,254,-386,174xm280,-41v88,0,164,-55,164,-217v0,-161,-76,-213,-174,-213v-107,0,-171,78,-171,213v0,135,74,217,181,217xm257,-627r0,-73r46,0r0,73r-46,0","w":573},"\u0122":{"d":"61,-350v0,-202,151,-362,349,-362v158,0,244,79,244,79r-26,33v0,0,-84,-71,-218,-71v-176,0,-304,140,-304,321v0,182,125,321,298,321v150,0,240,-115,240,-115r0,-135r-125,0r0,-40r168,0r0,319r-43,0v-2,-29,5,-66,-1,-91v0,0,-84,103,-239,103v-195,0,-343,-159,-343,-362xm380,66r48,0v12,52,5,87,-16,134r-39,0v19,-50,26,-83,7,-134","w":757},"\u0123":{"d":"119,134v0,0,62,35,134,35v107,0,190,-51,190,-172v0,-26,5,-91,2,-99v-30,61,-85,102,-168,102v-130,0,-222,-102,-222,-258v0,-156,85,-254,215,-254v145,0,170,99,176,98v-5,-17,-2,-61,-3,-86r42,0r0,497v0,219,-229,254,-386,174xm280,-41v88,0,164,-55,164,-217v0,-161,-76,-213,-174,-213v-107,0,-171,78,-171,213v0,135,74,217,181,217xm306,-566r-48,0v-12,-52,-5,-87,16,-134r39,0v-19,50,-26,83,-7,134","w":573},"\u0124":{"d":"108,0r0,-700r43,0r0,329r444,0r0,-329r43,0r0,700r-43,0r0,-331r-444,0r0,331r-43,0xm267,-750r80,-111r52,0r80,111r-49,0v-20,-26,-35,-57,-58,-80r-56,80r-49,0","w":746},"\u0125":{"d":"340,-471v-114,0,-210,90,-210,227r0,244r-42,0r0,-700r42,0r0,288v2,24,-8,42,-2,41v17,-47,87,-141,212,-141v130,0,165,77,165,195r0,317r-42,0r0,-302v0,-87,-11,-169,-123,-169xm4,-750r80,-111r52,0r80,111r-49,0v-20,-26,-35,-57,-58,-80r-56,80r-49,0","w":586},"\u0126":{"d":"128,0r0,-511r-65,0r0,-40r65,0r0,-149r43,0r0,149r444,0r0,-149r43,0r0,149r65,0r0,40r-65,0r0,511r-43,0r0,-331r-444,0r0,331r-43,0xm171,-371r444,0r0,-140r-444,0r0,140","w":786},"\u0127":{"d":"340,-471v-114,0,-210,90,-210,227r0,244r-42,0r0,-569r-81,0r0,-40r81,0r0,-91r42,0r0,91r133,0r0,40r-133,0r-2,193r2,0v17,-47,85,-136,210,-136v130,0,165,77,165,195r0,317r-42,0r0,-302v0,-87,-11,-169,-123,-169","w":586},"\u0128":{"d":"108,0r0,-700r43,0r0,700r-43,0xm-14,-753v0,-71,28,-108,83,-108v67,0,79,74,126,74v35,0,40,-48,40,-71r40,0v0,71,-28,108,-83,108v-67,0,-79,-74,-126,-74v-35,0,-40,48,-40,71r-40,0","w":259},"\u0129":{"d":"88,0r0,-500r42,0r0,500r-42,0xm-34,-592v0,-71,28,-108,83,-108v67,0,79,74,126,74v35,0,40,-48,40,-71r40,0v0,71,-28,108,-83,108v-67,0,-79,-74,-126,-74v-35,0,-40,48,-40,71r-40,0","w":218},"\u012a":{"d":"108,0r0,-700r43,0r0,700r-43,0xm11,-786r0,-40r239,0r0,40r-239,0","w":259},"\u012b":{"d":"88,0r0,-500r42,0r0,500r-42,0xm-9,-625r0,-40r239,0r0,40r-239,0","w":218},"\u012c":{"d":"108,0r0,-700r43,0r0,700r-43,0xm130,-747v-56,0,-108,-38,-101,-114r40,0v-5,51,23,76,61,76v36,0,66,-25,61,-76r40,0v6,76,-45,115,-101,114","w":259},"\u012d":{"d":"88,0r0,-500r42,0r0,500r-42,0xm110,-586v-56,0,-108,-38,-101,-114r40,0v-5,51,23,76,61,76v36,0,66,-25,61,-76r40,0v6,76,-45,115,-101,114","w":218},"\u012e":{"d":"36,113v0,-67,64,-115,72,-120r0,-693r43,0r0,700v-21,17,-70,63,-70,109v0,50,68,56,68,56r-9,39v0,0,-104,-6,-104,-91","w":259},"\u012f":{"d":"15,113v0,-69,68,-118,73,-121r0,-492r42,0r0,500v-21,17,-70,63,-70,109v0,50,68,56,68,56r-9,39v0,0,-104,-6,-104,-91xm84,-627r0,-73r50,0r0,73r-50,0","w":218},"\u0130":{"d":"108,0r0,-700r43,0r0,700r-43,0xm107,-788r0,-73r46,0r0,73r-46,0","w":259},"\u0131":{"d":"88,0r0,-500r42,0r0,500r-42,0","w":218},"\u0132":{"d":"260,5r0,-42v69,0,154,-23,154,-181r0,-482r43,0r0,482v0,187,-106,223,-197,223xm108,0r0,-700r43,0r0,700r-43,0","w":557},"\u0133":{"d":"84,-627r0,-73r50,0r0,73r-50,0xm88,0r0,-500r42,0r0,500r-42,0xm303,-500r42,0r0,520v0,166,-108,185,-159,185v-15,0,-25,-2,-25,-2r0,-39v64,7,142,-3,142,-143r0,-521xm299,-627r0,-73r50,0r0,73r-50,0","w":433},"\u0134":{"d":"82,-213v-10,114,55,185,144,184v69,0,144,-40,144,-161r0,-470r-167,0r0,-40r210,0r0,509v0,150,-96,203,-187,203v-97,0,-196,-66,-187,-225r43,0xm202,-750r80,-111r52,0r80,111r-49,0v-20,-26,-35,-57,-58,-80r-56,80r-49,0","w":513},"\u0135":{"d":"88,-500r42,0r0,520v0,166,-108,185,-159,185v-15,0,-25,-2,-25,-2r0,-39v64,7,142,-3,142,-143r0,-521xm-1,-589r80,-111r52,0r80,111r-49,0v-20,-26,-35,-57,-58,-80r-56,80r-49,0","w":218},"\u0136":{"d":"108,0r0,-700r43,0r0,312r130,0r200,-312r52,0r-215,332r229,368r-52,0r-214,-348r-130,0r0,348r-43,0xm277,66r48,0v12,52,5,87,-16,134r-39,0v19,-50,26,-83,7,-134","w":580},"\u0137":{"d":"88,0r0,-700r42,0r0,397r89,0r162,-197r55,0r-181,217r198,283r-53,0r-181,-264r-89,0r0,264r-42,0xm226,66r48,0v12,52,5,87,-16,134r-39,0v19,-50,26,-83,7,-134","w":480},"\u0138":{"d":"88,0r0,-500r42,0r0,213r86,0r173,-213r57,0r-191,232r188,268r-55,0r-172,-250r-86,0r0,250r-42,0","w":483},"\u0139":{"d":"108,0r0,-700r43,0r0,660r334,0r0,40r-377,0xm107,-750r67,-111r56,0r-79,111r-44,0","w":509},"\u013a":{"d":"83,-101r0,-599r42,0r0,586v4,78,35,80,74,77r0,39v-48,6,-116,-1,-116,-103xm83,-750r67,-111r56,0r-79,111r-44,0","w":230},"\u013b":{"d":"108,0r0,-700r43,0r0,660r334,0r0,40r-377,0xm279,66r48,0v12,52,5,87,-16,134r-39,0v19,-50,26,-83,7,-134","w":509},"\u013c":{"d":"83,-101r0,-599r42,0r0,586v4,78,35,80,74,77r0,39v-48,6,-116,-1,-116,-103xm112,66r48,0v12,52,5,87,-16,134r-39,0v19,-50,26,-83,7,-134","w":230},"\u013d":{"d":"108,0r0,-700r43,0r0,660r334,0r0,40r-377,0xm248,-700r48,0v12,52,5,87,-16,134r-39,0v19,-50,26,-83,7,-134","w":509},"\u013e":{"d":"83,-101r0,-599r42,0r0,586v4,78,35,80,74,77r0,39v-48,6,-116,-1,-116,-103xm193,-700r48,0v12,52,5,87,-16,134r-39,0v19,-50,26,-83,7,-134","w":260},"\u013f":{"d":"108,0r0,-700r43,0r0,660r334,0r0,40r-377,0xm284,-334r0,-63r61,0r0,63r-61,0","w":509},"\u0140":{"d":"83,-101r0,-599r42,0r0,586v4,78,35,80,74,77r0,39v-48,6,-116,-1,-116,-103xm190,-334r0,-63r61,0r0,63r-61,0","w":264},"\u0141":{"d":"69,-333r0,-47r65,-37r0,-283r43,0r0,258r115,-67r0,48r-115,66r0,355r334,0r0,40r-377,0r0,-370","w":535},"\u0142":{"d":"36,-333r0,-47r89,-51r0,-269r42,0r0,244r92,-53r0,48r-92,53r0,294v4,78,35,80,74,77r0,39v-48,6,-116,-1,-116,-103r0,-283","w":293},"\u0143":{"d":"108,0r0,-700r40,0r399,549v26,32,54,89,59,88v-11,-190,-2,-434,-5,-637r43,0r0,700r-40,0r-399,-549v-26,-32,-54,-89,-59,-88v11,190,2,434,5,637r-43,0xm353,-750r67,-111r56,0r-79,111r-44,0","w":752},"\u0144":{"d":"340,-471v-114,0,-210,90,-210,227r0,244r-42,0r0,-500r42,0r0,88v2,24,-8,42,-2,41v17,-47,87,-141,212,-141v130,0,165,77,165,195r0,317r-42,0r0,-302v0,-87,-11,-169,-123,-169xm285,-589r67,-111r56,0r-79,111r-44,0","w":586},"\u0145":{"d":"108,0r0,-700r40,0r399,549v26,32,54,89,59,88v-11,-190,-2,-434,-5,-637r43,0r0,700r-40,0r-399,-549v-26,-32,-54,-89,-59,-88v11,190,2,434,5,637r-43,0xm351,66r48,0v12,52,5,87,-16,134r-39,0v19,-50,26,-83,7,-134","w":752},"\u0146":{"d":"340,-471v-114,0,-210,90,-210,227r0,244r-42,0r0,-500r42,0r0,88v2,24,-8,42,-2,41v17,-47,87,-141,212,-141v130,0,165,77,165,195r0,317r-42,0r0,-302v0,-87,-11,-169,-123,-169xm272,66r48,0v12,52,5,87,-16,134r-39,0v19,-50,26,-83,7,-134","w":586},"\u0147":{"d":"108,0r0,-700r40,0r399,549v26,32,54,89,59,88v-11,-190,-2,-434,-5,-637r43,0r0,700r-40,0r-399,-549v-26,-32,-54,-89,-59,-88v11,190,2,434,5,637r-43,0xm350,-750r-80,-111r49,0v20,26,35,57,58,80r56,-80r49,0r-80,111r-52,0","w":752},"\u0148":{"d":"340,-471v-114,0,-210,90,-210,227r0,244r-42,0r0,-500r42,0r0,88v2,24,-8,42,-2,41v17,-47,87,-141,212,-141v130,0,165,77,165,195r0,317r-42,0r0,-302v0,-87,-11,-169,-123,-169xm282,-589r-80,-111r49,0v20,26,35,57,58,80r56,-80r49,0r-80,111r-52,0","w":586},"\u0149":{"d":"340,-471v-114,0,-210,90,-210,227r0,244r-42,0r0,-500r42,0r0,88v2,24,-8,42,-2,41v17,-47,87,-141,212,-141v130,0,165,77,165,195r0,317r-42,0r0,-302v0,-87,-11,-169,-123,-169xm32,-700r48,0v12,52,5,87,-16,134r-39,0v19,-50,26,-83,7,-134","w":586},"\u014a":{"d":"108,0r0,-700r40,0r399,549v26,32,54,89,59,88v-11,-190,-2,-434,-5,-637r43,0r0,702v0,150,-96,203,-187,203r0,-42v69,0,144,-40,144,-167r-396,-545v-26,-32,-54,-89,-59,-88v11,190,2,434,5,637r-43,0","w":752},"\u014b":{"d":"340,-471v-114,0,-210,90,-210,227r0,244r-42,0r0,-500r42,0v2,40,-6,88,0,124v17,-47,85,-136,210,-136v130,0,165,77,165,195r0,342v0,166,-108,185,-159,185v-15,0,-25,-2,-25,-2r0,-39v64,7,142,-3,142,-143r0,-328v0,-87,-11,-169,-123,-169","w":586},"\u014c":{"d":"59,-355v0,-201,159,-357,354,-357v195,0,354,156,354,357v0,206,-159,367,-354,367v-195,0,-354,-161,-354,-367xm104,-355v0,184,138,326,309,326v171,0,309,-142,309,-326v0,-179,-138,-316,-309,-316v-171,0,-309,137,-309,316xm294,-786r0,-40r239,0r0,40r-239,0","w":826},"\u014d":{"d":"51,-253v0,-146,116,-259,259,-259v143,0,259,113,259,259v0,149,-116,265,-259,265v-143,0,-259,-116,-259,-265xm95,-253v0,127,96,224,215,224v119,0,215,-97,215,-224v0,-124,-96,-218,-215,-218v-119,0,-215,94,-215,218xm191,-625r0,-40r239,0r0,40r-239,0","w":620},"\u014e":{"d":"59,-355v0,-201,159,-357,354,-357v195,0,354,156,354,357v0,206,-159,367,-354,367v-195,0,-354,-161,-354,-367xm104,-355v0,184,138,326,309,326v171,0,309,-142,309,-326v0,-179,-138,-316,-309,-316v-171,0,-309,137,-309,316xm413,-747v-56,0,-108,-38,-101,-114r40,0v-5,51,23,76,61,76v36,0,66,-25,61,-76r40,0v6,76,-45,115,-101,114","w":826},"\u014f":{"d":"51,-253v0,-146,116,-259,259,-259v143,0,259,113,259,259v0,149,-116,265,-259,265v-143,0,-259,-116,-259,-265xm95,-253v0,127,96,224,215,224v119,0,215,-97,215,-224v0,-124,-96,-218,-215,-218v-119,0,-215,94,-215,218xm310,-586v-56,0,-108,-38,-101,-114r40,0v-5,51,23,76,61,76v36,0,66,-25,61,-76r40,0v6,76,-45,115,-101,114","w":620},"\u0150":{"d":"59,-355v0,-201,159,-357,354,-357v195,0,354,156,354,357v0,206,-159,367,-354,367v-195,0,-354,-161,-354,-367xm104,-355v0,184,138,326,309,326v171,0,309,-142,309,-326v0,-179,-138,-316,-309,-316v-171,0,-309,137,-309,316xm433,-750r67,-111r56,0r-79,111r-44,0xm318,-750r62,-111r50,0r-65,111r-47,0","w":826},"\u0151":{"d":"51,-253v0,-146,116,-259,259,-259v143,0,259,113,259,259v0,149,-116,265,-259,265v-143,0,-259,-116,-259,-265xm95,-253v0,127,96,224,215,224v119,0,215,-97,215,-224v0,-124,-96,-218,-215,-218v-119,0,-215,94,-215,218xm330,-589r67,-111r56,0r-79,111r-44,0xm215,-589r62,-111r50,0r-65,111r-47,0","w":620},"\u0152":{"d":"62,-350v0,-202,145,-360,352,-360v141,0,299,8,453,10r0,40r-340,0r0,287r279,0r0,40r-279,0r0,293r359,0r0,40r-355,0v-28,0,-83,10,-117,10v-207,0,-352,-157,-352,-360xm107,-350v0,203,157,355,377,311r0,-622v-212,-43,-377,109,-377,311","w":947},"\u0153":{"d":"52,-249v0,-159,119,-263,258,-263v104,0,191,61,236,149v39,-97,126,-149,222,-149v144,0,215,118,202,255r-401,0v4,150,101,228,214,228v96,0,155,-63,155,-63r23,35v0,0,-70,69,-178,69v-107,0,-194,-60,-238,-150v-41,94,-132,150,-235,150v-139,0,-258,-102,-258,-261xm572,-296r356,0v-5,-122,-78,-177,-161,-177v-92,0,-177,60,-195,177xm96,-249v0,133,97,220,214,220v117,0,215,-87,215,-225v0,-132,-101,-217,-215,-217v-117,0,-214,89,-214,222","w":1025},"\u0154":{"d":"108,0r0,-700v105,4,265,-13,331,21v58,29,97,88,97,168v0,103,-62,172,-140,195v0,0,7,8,16,25r157,291r-51,0r-166,-310r-201,0r0,310r-43,0xm491,-511v0,-97,-51,-149,-180,-149r-160,0r0,310r190,0v92,0,150,-66,150,-161xm275,-750r67,-111r56,0r-79,111r-44,0","w":621},"\u0155":{"d":"317,-459v-128,-17,-187,117,-187,243r0,216r-42,0r0,-500r42,0r0,95v2,24,-8,42,-2,41v29,-85,89,-154,189,-137r0,42xm183,-589r67,-111r56,0r-79,111r-44,0","w":338},"\u0156":{"d":"108,0r0,-700v105,4,265,-13,331,21v58,29,97,88,97,168v0,103,-62,172,-140,195v0,0,7,8,16,25r157,291r-51,0r-166,-310r-201,0r0,310r-43,0xm491,-511v0,-97,-51,-149,-180,-149r-160,0r0,310r190,0v92,0,150,-66,150,-161xm293,66r48,0v12,52,5,87,-16,134r-39,0v19,-50,26,-83,7,-134","w":621},"\u0157":{"d":"317,-459v-128,-17,-187,117,-187,243r0,216r-42,0r0,-500r42,0r0,95v2,24,-8,42,-2,41v29,-85,89,-154,189,-137r0,42xm86,66r48,0v12,52,5,87,-16,134r-39,0v19,-50,26,-83,7,-134","w":338},"\u0158":{"d":"108,0r0,-700v105,4,265,-13,331,21v58,29,97,88,97,168v0,103,-62,172,-140,195v0,0,7,8,16,25r157,291r-51,0r-166,-310r-201,0r0,310r-43,0xm491,-511v0,-97,-51,-149,-180,-149r-160,0r0,310r190,0v92,0,150,-66,150,-161xm272,-750r-80,-111r49,0v20,26,35,57,58,80r56,-80r49,0r-80,111r-52,0","w":621},"\u0159":{"d":"317,-459v-128,-17,-187,117,-187,243r0,216r-42,0r0,-500r42,0r0,95v2,24,-8,42,-2,41v29,-85,89,-154,189,-137r0,42xm180,-589r-80,-111r49,0v20,26,35,57,58,80r56,-80r49,0r-80,111r-52,0","w":338},"\u015a":{"d":"56,-75r29,-33v0,0,71,78,187,78v87,0,156,-54,156,-138v0,-199,-358,-144,-358,-363v0,-93,83,-181,210,-181v114,0,178,65,178,65r-24,37v0,0,-60,-60,-153,-60v-104,0,-166,70,-166,138v0,185,358,128,358,362v0,101,-78,182,-203,182v-138,0,-214,-87,-214,-87xm245,-750r67,-111r56,0r-79,111r-44,0","w":530},"\u015b":{"d":"45,-60r27,-32v0,0,56,63,155,63v61,0,115,-32,115,-94v0,-127,-275,-91,-275,-254v0,-89,75,-135,160,-135v102,0,148,54,148,54r-25,34v0,0,-41,-47,-126,-47v-57,0,-113,26,-113,91v0,130,275,91,275,257v0,80,-68,135,-160,135v-121,0,-181,-72,-181,-72xm201,-589r67,-111r56,0r-79,111r-44,0","w":436},"\u015c":{"d":"56,-75r29,-33v0,0,71,78,187,78v87,0,156,-54,156,-138v0,-199,-358,-144,-358,-363v0,-93,83,-181,210,-181v114,0,178,65,178,65r-24,37v0,0,-60,-60,-153,-60v-104,0,-166,70,-166,138v0,185,358,128,358,362v0,101,-78,182,-203,182v-138,0,-214,-87,-214,-87xm163,-750r80,-111r52,0r80,111r-49,0v-20,-26,-35,-57,-58,-80r-56,80r-49,0","w":530},"\u015d":{"d":"45,-60r27,-32v0,0,56,63,155,63v61,0,115,-32,115,-94v0,-127,-275,-91,-275,-254v0,-89,75,-135,160,-135v102,0,148,54,148,54r-25,34v0,0,-41,-47,-126,-47v-57,0,-113,26,-113,91v0,130,275,91,275,257v0,80,-68,135,-160,135v-121,0,-181,-72,-181,-72xm119,-589r80,-111r52,0r80,111r-49,0v-20,-26,-35,-57,-58,-80r-56,80r-49,0","w":436},"\u015e":{"d":"56,-75r29,-33v0,0,71,78,187,78v87,0,156,-54,156,-138v0,-199,-358,-144,-358,-363v0,-93,83,-181,210,-181v114,0,178,65,178,65r-24,37v0,0,-60,-60,-153,-60v-104,0,-166,70,-166,138v0,185,358,128,358,362v0,97,-72,175,-188,181r-9,49v41,6,69,32,69,68v0,72,-79,84,-135,72r0,-38v0,0,18,5,41,5v27,0,54,-8,54,-37v0,-26,-33,-42,-73,-37r17,-82v-125,-8,-193,-86,-193,-86","w":530},"\u015f":{"d":"45,-60r27,-32v0,0,56,63,155,63v61,0,115,-32,115,-94v0,-127,-275,-91,-275,-254v0,-89,75,-135,160,-135v102,0,148,54,148,54r-25,34v0,0,-41,-47,-126,-47v-57,0,-113,26,-113,91v0,130,275,91,275,257v0,76,-62,129,-147,134r-9,49v41,6,69,32,69,68v0,72,-79,84,-135,72r0,-38v0,0,18,5,41,5v27,0,54,-8,54,-37v0,-26,-33,-42,-73,-37r17,-82v-106,-8,-158,-71,-158,-71","w":436},"\u0160":{"d":"56,-75r29,-33v0,0,71,78,187,78v87,0,156,-54,156,-138v0,-199,-358,-144,-358,-363v0,-93,83,-181,210,-181v114,0,178,65,178,65r-24,37v0,0,-60,-60,-153,-60v-104,0,-166,70,-166,138v0,185,358,128,358,362v0,101,-78,182,-203,182v-138,0,-214,-87,-214,-87xm243,-750r-80,-111r49,0v20,26,35,57,58,80r56,-80r49,0r-80,111r-52,0","w":530},"\u0161":{"d":"45,-60r27,-32v0,0,56,63,155,63v61,0,115,-32,115,-94v0,-127,-275,-91,-275,-254v0,-89,75,-135,160,-135v102,0,148,54,148,54r-25,34v0,0,-41,-47,-126,-47v-57,0,-113,26,-113,91v0,130,275,91,275,257v0,80,-68,135,-160,135v-121,0,-181,-72,-181,-72xm199,-589r-80,-111r49,0v20,26,35,57,58,80r56,-80r49,0r-80,111r-52,0","w":436},"\u0162":{"d":"269,0r0,-660r-261,0r0,-40r565,0r0,40r-261,0r0,660r-5,0r-11,60v41,6,69,32,69,68v0,72,-79,84,-135,72r0,-38v0,0,18,5,41,5v27,0,54,-8,54,-37v0,-26,-33,-42,-73,-37r20,-93r-3,0"},"\u0163":{"d":"105,-181r0,-278r-66,0r0,-38r66,0r0,-142r42,0r0,142r131,0r0,38r-131,0r0,275v8,143,76,154,142,147r0,39v-18,3,-55,2,-80,-5r-11,63v41,6,69,32,69,68v0,72,-79,84,-135,72r0,-38v0,0,18,5,41,5v27,0,54,-8,54,-37v0,-26,-33,-42,-73,-37r24,-110v-39,-23,-73,-70,-73,-164","w":315},"\u0164":{"d":"269,0r0,-660r-261,0r0,-40r565,0r0,40r-261,0r0,660r-43,0xm264,-750r-80,-111r49,0v20,26,35,57,58,80r56,-80r49,0r-80,111r-52,0"},"\u0165":{"d":"104,-181r0,-278r-66,0r0,-38r66,0r0,-142r42,0r0,142r131,0r0,38r-131,0r0,275v8,143,76,154,142,147r0,39v0,0,-10,2,-25,2v-52,0,-159,-19,-159,-185xm219,-700r48,0v12,52,5,87,-16,134r-39,0v19,-50,26,-83,7,-134","w":314},"\u0166":{"d":"114,-337r0,-40r166,0r0,-283r-261,0r0,-40r565,0r0,40r-261,0r0,283r170,0r0,40r-170,0r0,337r-43,0r0,-337r-166,0","w":604},"\u0167":{"d":"48,-295r0,-40r66,0r0,-124r-66,0r0,-38r66,0r0,-142r42,0r0,142r131,0r0,38r-131,0r0,124r131,0r0,40r-131,0r0,111v8,143,76,154,142,147r0,39v0,0,-10,2,-25,2v-52,0,-159,-19,-159,-185r0,-114r-66,0","w":339},"\u0168":{"d":"98,-240r0,-460r43,0r0,458v0,132,86,213,218,213v132,0,219,-81,219,-215r0,-456r43,0r0,460v0,154,-107,252,-261,252v-154,0,-262,-98,-262,-252xm215,-753v0,-71,28,-108,83,-108v67,0,79,74,126,74v35,0,40,-48,40,-71r40,0v0,71,-28,108,-83,108v-67,0,-79,-74,-126,-74v-35,0,-40,48,-40,71r-40,0","w":719},"\u0169":{"d":"81,-183r0,-317r42,0r0,302v0,87,11,169,123,169v125,0,205,-110,205,-227r0,-244r42,0r0,500r-42,0r0,-88v-2,-24,8,-42,2,-41v-17,47,-86,141,-207,141v-123,0,-165,-68,-165,-195xm143,-592v0,-71,28,-108,83,-108v67,0,79,74,126,74v35,0,40,-48,40,-71r40,0v0,71,-28,108,-83,108v-67,0,-79,-74,-126,-74v-35,0,-40,48,-40,71r-40,0"},"\u016a":{"d":"98,-240r0,-460r43,0r0,458v0,132,86,213,218,213v132,0,219,-81,219,-215r0,-456r43,0r0,460v0,154,-107,252,-261,252v-154,0,-262,-98,-262,-252xm240,-786r0,-40r239,0r0,40r-239,0","w":719},"\u016b":{"d":"81,-183r0,-317r42,0r0,302v0,87,11,169,123,169v125,0,205,-110,205,-227r0,-244r42,0r0,500r-42,0r0,-88v-2,-24,8,-42,2,-41v-17,47,-86,141,-207,141v-123,0,-165,-68,-165,-195xm168,-625r0,-40r239,0r0,40r-239,0"},"\u016c":{"d":"98,-240r0,-460r43,0r0,458v0,132,86,213,218,213v132,0,219,-81,219,-215r0,-456r43,0r0,460v0,154,-107,252,-261,252v-154,0,-262,-98,-262,-252xm359,-747v-56,0,-108,-38,-101,-114r40,0v-5,51,23,76,61,76v36,0,66,-25,61,-76r40,0v6,76,-45,115,-101,114","w":719},"\u016d":{"d":"81,-183r0,-317r42,0r0,302v0,87,11,169,123,169v125,0,205,-110,205,-227r0,-244r42,0r0,500r-42,0r0,-88v-2,-24,8,-42,2,-41v-17,47,-86,141,-207,141v-123,0,-165,-68,-165,-195xm287,-586v-56,0,-108,-38,-101,-114r40,0v-5,51,23,76,61,76v36,0,66,-25,61,-76r40,0v6,76,-45,115,-101,114"},"\u016e":{"d":"98,-240r0,-460r43,0r0,458v0,132,86,213,218,213v132,0,219,-81,219,-215r0,-456r43,0r0,460v0,154,-107,252,-261,252v-154,0,-262,-98,-262,-252xm359,-740v-38,0,-67,-29,-67,-67v0,-38,29,-67,67,-67v38,0,67,29,67,67v0,38,-29,67,-67,67xm359,-775v19,0,32,-13,32,-32v0,-20,-13,-33,-32,-33v-19,0,-32,13,-32,33v0,19,13,32,32,32","w":719},"\u016f":{"d":"81,-183r0,-317r42,0r0,302v0,87,11,169,123,169v125,0,205,-110,205,-227r0,-244r42,0r0,500r-42,0r0,-88v-2,-24,8,-42,2,-41v-17,47,-86,141,-207,141v-123,0,-165,-68,-165,-195xm287,-579v-38,0,-67,-29,-67,-67v0,-38,29,-67,67,-67v38,0,67,29,67,67v0,38,-29,67,-67,67xm287,-614v19,0,32,-13,32,-32v0,-20,-13,-33,-32,-33v-19,0,-32,13,-32,33v0,19,13,32,32,32"},"\u0170":{"d":"98,-240r0,-460r43,0r0,458v0,132,86,213,218,213v132,0,219,-81,219,-215r0,-456r43,0r0,460v0,154,-107,252,-261,252v-154,0,-262,-98,-262,-252xm379,-750r67,-111r56,0r-79,111r-44,0xm264,-750r62,-111r50,0r-65,111r-47,0","w":719},"\u0171":{"d":"81,-183r0,-317r42,0r0,302v0,87,11,169,123,169v125,0,205,-110,205,-227r0,-244r42,0r0,500r-42,0r0,-88v-2,-24,8,-42,2,-41v-17,47,-86,141,-207,141v-123,0,-165,-68,-165,-195xm307,-589r67,-111r56,0r-79,111r-44,0xm192,-589r62,-111r50,0r-65,111r-47,0"},"\u0172":{"d":"334,113v0,-45,30,-76,51,-102v-168,11,-287,-89,-287,-251r0,-460r43,0r0,458v0,132,86,213,218,213v132,0,219,-81,219,-215r0,-456r43,0r0,460v0,126,-66,184,-131,225v-57,36,-111,71,-111,124v0,50,68,56,68,56r-9,39v0,0,-104,-6,-104,-91","w":720},"\u0173":{"d":"81,-183r0,-317r42,0r0,302v0,87,11,169,123,169v125,0,205,-110,205,-227r0,-244r42,0r0,500v-23,17,-80,63,-80,109v0,50,68,56,68,56r-9,39v0,0,-104,-6,-104,-91v0,-69,77,-118,83,-121v-1,-37,6,-83,0,-116v-17,47,-84,136,-205,136v-123,0,-165,-68,-165,-195"},"\u0174":{"d":"460,-639r-4,0v0,0,-14,66,-27,111r-148,528r-54,0r-184,-700r45,0r148,570v11,35,13,77,19,75r179,-645r48,0r179,645r2,0v0,0,8,-41,17,-75r153,-570r45,0r-189,700r-54,0r-148,-528v-13,-45,-27,-111,-27,-111xm363,-750r80,-111r52,0r80,111r-49,0v-20,-26,-35,-57,-58,-80r-56,80r-49,0","w":919},"\u0175":{"d":"197,0r-176,-500r45,0r153,446r156,-444r47,0r154,444r155,-446r45,0r-176,500r-45,0r-139,-388v-11,-25,-13,-56,-19,-54r-155,442r-45,0xm292,-589r80,-111r52,0r80,111r-49,0v-20,-26,-35,-57,-58,-80r-56,80r-49,0","w":797},"\u0176":{"d":"257,0r0,-304r-238,-396r49,0r166,276v22,35,40,80,45,79v55,-106,146,-247,209,-355r49,0r-237,396r0,304r-43,0xm172,-750r80,-111r52,0r80,111r-49,0v-20,-26,-35,-57,-58,-80r-56,80r-49,0","w":556},"\u0177":{"d":"8,182r19,-36v0,0,28,24,62,24v80,0,103,-110,134,-173r-207,-497r45,0r183,446r184,-446r45,0r-257,617v-22,52,-64,93,-127,93v-48,0,-81,-28,-81,-28xm140,-589r80,-111r52,0r80,111r-49,0v-20,-26,-35,-57,-58,-80r-56,80r-49,0","w":489},"\u0178":{"d":"257,0r0,-304r-238,-396r49,0r166,276v22,35,40,80,45,79v55,-106,146,-247,209,-355r49,0r-237,396r0,304r-43,0xm318,-788r0,-73r46,0r0,73r-46,0xm181,-788r0,-73r46,0r0,73r-46,0","w":556},"\u0179":{"d":"44,0r0,-34r385,-562v24,-39,49,-61,48,-66r-412,2r0,-40r464,0r0,34r-385,562v-24,39,-49,61,-48,66r436,-2r0,40r-488,0xm280,-750r67,-111r56,0r-79,111r-44,0","w":586},"\u017a":{"d":"44,0r0,-34r303,-381v18,-26,40,-43,39,-48r-329,2r0,-39r386,0r0,34r-304,381v-18,26,-41,43,-40,48r355,-2r0,39r-410,0xm225,-589r67,-111r56,0r-79,111r-44,0","w":501},"\u017b":{"d":"44,0r0,-34r385,-562v24,-39,49,-61,48,-66r-412,2r0,-40r464,0r0,34r-385,562v-24,39,-49,61,-48,66r436,-2r0,40r-488,0xm280,-788r0,-73r46,0r0,73r-46,0","w":586},"\u017c":{"d":"44,0r0,-34r303,-381v18,-26,40,-43,39,-48r-329,2r0,-39r386,0r0,34r-304,381v-18,26,-41,43,-40,48r355,-2r0,39r-410,0xm226,-627r0,-73r46,0r0,73r-46,0","w":501},"\u017d":{"d":"44,0r0,-34r385,-562v24,-39,49,-61,48,-66r-412,2r0,-40r464,0r0,34r-385,562v-24,39,-49,61,-48,66r436,-2r0,40r-488,0xm277,-750r-80,-111r49,0v20,26,35,57,58,80r56,-80r49,0r-80,111r-52,0","w":586},"\u017e":{"d":"44,0r0,-34r303,-381v18,-26,40,-43,39,-48r-329,2r0,-39r386,0r0,34r-304,381v-18,26,-41,43,-40,48r355,-2r0,39r-410,0xm223,-589r-80,-111r49,0v20,26,35,57,58,80r56,-80r49,0r-80,111r-52,0","w":501},"\u017f":{"d":"109,0r0,-459r-63,0r0,-38r63,0r0,-23v0,-165,108,-185,158,-185v16,0,26,2,26,2r0,39v-65,-7,-142,3,-142,143r0,521r-42,0","w":239},"\u0192":{"d":"40,57v86,9,178,20,192,-140r26,-295r-96,0r0,-38r99,0r10,-111v14,-165,126,-185,176,-185v42,0,81,7,81,7r0,39v0,0,-42,-7,-82,-7v-41,0,-119,16,-131,145r-11,112r133,0r0,38r-136,0r-26,294v-15,166,-124,185,-174,185v-37,0,-61,-5,-61,-5r0,-39","w":568},"\u0218":{"d":"56,-75r29,-33v0,0,71,78,187,78v87,0,156,-54,156,-138v0,-199,-358,-144,-358,-363v0,-93,83,-181,210,-181v114,0,178,65,178,65r-24,37v0,0,-60,-60,-153,-60v-104,0,-166,70,-166,138v0,185,358,128,358,362v0,101,-78,182,-203,182v-138,0,-214,-87,-214,-87xm242,66r48,0v12,52,5,87,-16,134r-39,0v19,-50,26,-83,7,-134","w":530},"\u0219":{"d":"45,-60r27,-32v0,0,56,63,155,63v61,0,115,-32,115,-94v0,-127,-275,-91,-275,-254v0,-89,75,-135,160,-135v102,0,148,54,148,54r-25,34v0,0,-41,-47,-126,-47v-57,0,-113,26,-113,91v0,130,275,91,275,257v0,80,-68,135,-160,135v-121,0,-181,-72,-181,-72xm199,66r48,0v12,52,5,87,-16,134r-39,0v19,-50,26,-83,7,-134","w":436},"\u021a":{"d":"269,0r0,-660r-261,0r0,-40r565,0r0,40r-261,0r0,660r-43,0xm267,66r48,0v12,52,5,87,-16,134r-39,0v19,-50,26,-83,7,-134"},"\u021b":{"d":"104,-181r0,-278r-66,0r0,-38r66,0r0,-142r42,0r0,142r131,0r0,38r-131,0r0,275v8,143,76,154,142,147r0,39v0,0,-10,2,-25,2v-52,0,-159,-19,-159,-185xm184,66r48,0v12,52,5,87,-16,134r-39,0v19,-50,26,-83,7,-134","w":314},"\u00a0":{"w":277},"\u00ad":{"d":"78,-263r0,-40r276,0r0,40r-276,0","w":432}}});
/*!
 * The following copyright notice may not be removed under any circumstances.
 * 
 * Copyright:
 * Copyright (c) 2008 by Jos Buivenga. All rights reserved.
 * 
 * Trademark:
 * Museo Sans is a trademark of Jos Buivenga.
 * 
 * Full name:
 * MuseoSans-500
 * 
 * Description:
 * Spaced and kerned with iKern.
 * 
 * Manufacturer:
 * Jos Buivenga
 * 
 * Designer:
 * Jos Buivenga
 * 
 * Vendor URL:
 * http://www.josbuivenga.demon.nl
 */
Cufon.registerFont({"w":821,"face":{"font-family":"Museo Sans 500","font-weight":400,"font-stretch":"normal","units-per-em":"1000","panose-1":"2 0 0 0 0 0 0 0 0 0","ascent":"750","descent":"-250","x-height":"12","bbox":"-55 -892 957.571 210","underline-thickness":"50","underline-position":"-50","stemh":"84","stemv":"99","unicode-range":"U+0020-U+021B"},"glyphs":{" ":{"w":257},"!":{"d":"116,-194r-7,-512r100,0r-6,512r-87,0xm110,0r0,-97r99,0r0,97r-99,0","w":318},"\"":{"d":"203,-530r0,-188r76,0r0,188r-76,0xm63,-530r0,-188r76,0r0,188r-76,0","w":342},"#":{"d":"141,0r33,-191r-130,0r12,-74r131,0r29,-168r-129,0r12,-73r130,0r35,-200r81,0r-35,200r155,0r35,-200r81,0r-35,200r131,0r-13,73r-130,0r-30,168r130,0r-13,74r-129,0r-34,191r-81,0r33,-191r-155,0r-33,191r-81,0xm268,-265r155,0r30,-168r-155,0","w":718},"$":{"d":"54,-81r56,-75v0,0,75,76,180,76v66,0,122,-37,122,-104v0,-146,-346,-123,-346,-337v0,-97,75,-178,186,-194r0,-94r71,0r0,93v112,8,171,69,171,69r-45,82v0,0,-65,-61,-155,-61v-76,0,-128,47,-128,103v0,140,346,111,346,336v0,100,-71,183,-189,197r0,92r-71,0r0,-92v-128,-13,-198,-91,-198,-91","w":566},"%":{"d":"199,-422v-84,0,-151,-66,-151,-148v0,-81,67,-148,151,-148v84,0,152,67,152,148v0,82,-68,148,-152,148xm63,0r540,-706r94,0r-540,706r-94,0xm199,-496v42,0,74,-32,74,-74v0,-41,-32,-75,-74,-75v-42,0,-74,34,-74,75v0,42,32,74,74,74xm410,-136v0,-81,67,-148,152,-148v83,0,152,67,152,148v0,82,-69,148,-152,148v-85,0,-152,-66,-152,-148xm488,-136v0,42,32,74,74,74v41,0,74,-32,74,-74v0,-41,-33,-75,-74,-75v-42,0,-74,34,-74,75","w":761},"&":{"d":"54,-198v0,-80,50,-153,124,-183v0,0,-93,-32,-93,-155v0,-117,92,-182,217,-182v39,0,86,11,86,11r-25,79v0,0,-29,-6,-53,-6v-70,0,-125,39,-125,108v0,44,21,111,130,111r131,0r0,-96r97,0r0,96r94,0r0,86r-94,0r0,94v0,157,-93,247,-244,247v-147,0,-245,-91,-245,-210xm155,-203v0,68,56,124,144,124v90,0,147,-49,147,-160r0,-90r-135,0v-100,0,-156,47,-156,126","w":684},"'":{"d":"63,-530r0,-188r77,0r0,188r-77,0","w":203},"(":{"d":"189,95v-72,-120,-116,-274,-116,-435v0,-144,42,-277,116,-395r85,0v-155,250,-145,569,0,830r-85,0","w":302},")":{"d":"113,95r-85,0v145,-261,156,-580,0,-830r85,0v74,118,116,251,116,395v0,161,-44,315,-116,435","w":302},"*":{"d":"155,-329r-72,-52r89,-112r-136,-37r26,-84r133,50r-7,-142r91,0r-8,142r134,-50r27,84v-44,14,-96,22,-137,39r88,110r-71,52r-77,-118r-2,0","w":467},"+":{"d":"77,-246r0,-78r224,0r0,-246r82,0r0,246r223,0r0,78r-223,0r0,246r-82,0r0,-246r-224,0","w":683},",":{"d":"27,101r62,-206r99,0r-84,206r-77,0","w":255},"-":{"d":"90,-242r0,-86r292,0r0,86r-292,0","w":472},".":{"d":"76,0r0,-103r102,0r0,103r-102,0","w":254},"\/":{"d":"36,42r254,-786r86,0r-254,786r-86,0","w":404},"0":{"d":"312,12v-188,0,-249,-162,-249,-366v0,-203,61,-364,249,-364v189,0,250,161,250,364v0,204,-61,366,-250,366xm312,-79v116,0,149,-121,149,-275v0,-153,-33,-273,-149,-273v-115,0,-148,120,-148,273v0,154,33,275,148,275","w":625},"1":{"d":"56,0r0,-86r156,0r1,-500v-6,-1,-8,14,-36,41r-66,65r-60,-62r169,-164r88,0r0,620r154,0r0,86r-406,0","w":489},"2":{"d":"60,0v-56,-292,340,-335,341,-508v0,-70,-53,-117,-127,-117v-93,0,-143,90,-143,90r-73,-49v0,0,64,-134,223,-134v130,0,223,81,223,203v0,232,-337,268,-339,429r350,0r0,86r-455,0","w":572},"3":{"d":"40,-84r54,-75v0,0,69,77,171,77v79,0,144,-53,144,-129v0,-104,-99,-138,-213,-130r-23,-53r154,-181v24,-30,45,-43,44,-48v-76,6,-211,2,-299,3r0,-86r422,0r0,63r-192,221v93,10,207,70,207,207v0,121,-95,227,-240,227v-144,0,-229,-96,-229,-96","w":567},"4":{"d":"31,-189r0,-62r326,-455r113,0r0,433r96,0r0,84r-96,0r0,189r-97,0r0,-189r-342,0xm140,-273r233,0r0,-257v-2,-34,8,-72,2,-70v-62,109,-164,221,-235,327","w":606},"5":{"d":"48,-86r55,-72v0,0,55,76,155,76v83,0,155,-57,155,-143v0,-85,-70,-145,-161,-145v-69,0,-119,35,-119,35r-57,-21r35,-350r356,0r0,86r-270,0r-22,186v5,1,37,-22,93,-22v149,0,246,103,246,230v0,136,-107,238,-250,238v-145,0,-216,-98,-216,-98","w":563},"6":{"d":"323,12v-151,0,-264,-132,-264,-333v0,-181,99,-397,318,-397v83,0,137,29,137,29r-32,85v0,0,-45,-23,-101,-23v-130,0,-197,120,-212,237r2,0v30,-40,94,-67,156,-67v134,0,223,102,223,233v0,139,-95,236,-227,236xm322,-79v81,0,130,-63,130,-145v0,-86,-55,-149,-145,-149v-80,0,-144,48,-144,99v0,92,69,195,159,195","w":599},"7":{"d":"86,0r275,-556v20,-43,42,-62,41,-67v-104,7,-254,1,-367,3r0,-86r472,0r0,68r-319,638r-102,0","w":529},"8":{"d":"57,-204v0,-108,94,-175,113,-188v-142,-95,-87,-326,141,-326v131,0,222,73,222,189v0,94,-75,174,-84,184v54,33,96,77,96,150v0,110,-95,207,-242,207v-141,0,-246,-88,-246,-216xm443,-198v0,-76,-105,-106,-200,-152v-23,16,-85,64,-85,140v0,81,70,133,145,133v74,0,140,-48,140,-121xm189,-531v0,78,94,108,185,147v11,-11,62,-65,62,-139v0,-65,-52,-106,-126,-106v-78,0,-121,44,-121,98","w":607},"9":{"d":"222,12v-84,0,-137,-29,-137,-29r32,-86v0,0,45,24,101,24v130,0,197,-120,212,-237r-2,0v-29,40,-94,66,-156,66v-134,0,-223,-101,-223,-232v0,-139,95,-236,227,-236v150,0,264,131,264,333v0,181,-99,397,-318,397xm292,-333v80,0,144,-49,144,-99v0,-92,-69,-195,-159,-195v-82,0,-130,63,-130,145v0,86,54,149,145,149","w":599},":":{"d":"95,-403r0,-103r102,0r0,103r-102,0xm95,0r0,-103r102,0r0,103r-102,0","w":292},";":{"d":"47,101r53,-206r100,0r-75,206r-78,0xm101,-403r0,-103r102,0r0,103r-102,0","w":293},"<":{"d":"33,-252r0,-66r466,-208r0,89r-358,151r0,2r358,151r0,89","w":558},"=":{"d":"96,-340r0,-78r477,0r0,78r-477,0xm96,-151r0,-78r477,0r0,78r-477,0","w":669},">":{"d":"59,-44r0,-89r357,-151r0,-2r-357,-151r0,-89r466,208r0,66","w":558},"?":{"d":"144,-194r0,-47v0,-152,170,-174,170,-289v0,-56,-48,-99,-114,-99v-63,0,-114,42,-114,42r-54,-69v0,0,66,-64,175,-64v113,0,209,72,209,183v0,165,-177,182,-177,302r0,41r-95,0xm142,0r0,-97r99,0r0,97r-99,0","w":489},"@":{"d":"59,-241v0,-206,161,-370,365,-370v193,0,260,97,260,203r0,283r72,0r0,73r-273,0v-125,0,-207,-88,-207,-189v0,-99,81,-187,207,-187r108,0v-2,-57,-59,-103,-162,-103v-155,0,-273,134,-273,290v0,158,114,287,284,287r0,79v-224,0,-381,-162,-381,-366xm374,-242v0,65,48,117,116,117r101,0r0,-236r-99,0v-70,0,-118,54,-118,119"},"A":{"d":"517,0r-71,-203r-266,0r-70,203r-102,0r254,-706r104,0r254,706r-103,0xm342,-509v-14,-37,-23,-102,-29,-100v-21,89,-75,233,-107,324r214,0","w":628},"B":{"d":"96,0r0,-706r247,0v119,0,205,66,205,180v0,71,-38,122,-88,154v74,22,116,92,116,171v0,133,-103,201,-227,201r-253,0xm195,-409r148,0v64,0,104,-45,104,-107v0,-62,-38,-104,-106,-104r-146,0r0,211xm195,-86r159,0v76,0,121,-48,121,-120v0,-72,-48,-121,-122,-121r-158,0r0,241","w":634},"C":{"d":"48,-357v0,-205,154,-361,359,-361v170,0,257,93,257,93r-49,74v0,0,-82,-77,-204,-77v-158,0,-261,120,-261,270v0,151,105,279,262,279v133,0,218,-92,218,-92r53,71v0,0,-97,112,-274,112v-212,0,-361,-162,-361,-369","w":722},"D":{"d":"96,0r0,-706r234,0v216,0,358,129,358,352v0,224,-142,354,-358,354r-234,0xm195,-86r128,0v159,0,263,-94,263,-268v0,-173,-105,-266,-263,-266r-128,0r0,534","w":740},"E":{"d":"96,0r0,-706r410,0r0,86r-311,0r0,221r253,0r0,86r-253,0r0,227r328,0r0,86r-427,0","w":573},"F":{"d":"96,0r0,-706r389,0r0,86r-290,0r0,232r247,0r0,86r-247,0r0,302r-99,0","w":521},"G":{"d":"49,-354v0,-204,154,-364,360,-364v169,0,257,85,257,85r-50,74v0,0,-79,-69,-199,-69v-166,0,-266,121,-266,272v0,164,112,277,260,277v122,0,200,-88,200,-88r0,-102r-115,0r0,-86r205,0r0,355r-87,0v-2,-23,5,-55,-1,-74v0,0,-77,86,-217,86v-190,0,-347,-150,-347,-366","w":760},"H":{"d":"96,0r0,-706r99,0r0,310r366,0r0,-310r99,0r0,706r-99,0r0,-310r-366,0r0,310r-99,0","w":756},"I":{"d":"96,0r0,-706r99,0r0,706r-99,0","w":291},"J":{"d":"239,12v-113,0,-223,-81,-209,-250r98,0v-10,104,47,159,112,159v55,0,110,-32,110,-125r0,-416r-178,0r0,-86r277,0r0,503v0,153,-107,215,-210,215","w":537},"K":{"d":"96,0r0,-706r99,0r0,297r105,0r178,-297r109,0r-205,337r218,369r-112,0r-188,-324r-105,0r0,324r-99,0","w":623},"L":{"d":"96,0r0,-706r99,0r0,620r316,0r0,86r-415,0","w":529},"M":{"d":"74,0r57,-706r104,0r162,382v18,40,31,97,37,95v52,-146,137,-330,197,-477r104,0r57,706r-98,0r-35,-445v-5,-44,3,-106,-3,-104v-41,125,-125,297,-179,422r-88,0r-140,-318v-18,-39,-34,-108,-40,-106v-1,170,-25,381,-36,551r-99,0","w":866},"N":{"d":"96,0r0,-706r98,0r314,459v29,39,55,104,61,102v-14,-156,-4,-387,-7,-561r99,0r0,706r-97,0r-315,-458v-29,-40,-55,-105,-61,-103v14,155,4,387,7,561r-99,0","w":757},"O":{"d":"48,-358v0,-203,159,-360,363,-360v204,0,362,157,362,360v0,208,-158,370,-362,370v-204,0,-363,-162,-363,-370xm150,-358v0,159,117,279,261,279v144,0,260,-120,260,-279v0,-154,-116,-270,-260,-270v-144,0,-261,116,-261,270"},"P":{"d":"96,0r0,-706r258,0v129,0,222,87,222,221v0,134,-93,224,-222,224r-159,0r0,261r-99,0xm195,-347r143,0v85,0,137,-53,137,-138v0,-85,-52,-135,-136,-135r-144,0r0,273","w":607},"Q":{"d":"49,-357v0,-204,158,-361,362,-361v205,0,363,157,363,361v0,89,-32,171,-83,233r84,80r-58,62r-82,-82v-61,49,-138,76,-224,76v-204,0,-362,-163,-362,-369xm151,-357v0,158,114,278,260,278v53,0,112,-19,153,-52r-83,-81r58,-62r81,82v32,-44,52,-103,52,-165v0,-156,-114,-271,-261,-271v-146,0,-260,115,-260,271","w":833},"R":{"d":"96,0r0,-706v105,3,281,-10,348,16v72,27,119,98,119,191v0,92,-54,164,-127,193v59,92,115,208,171,306r-112,0r-149,-281r-151,0r0,281r-99,0xm462,-495v0,-91,-39,-125,-153,-125r-114,0r0,253r142,0v77,0,125,-49,125,-128","w":641},"S":{"d":"42,-81r56,-75v0,0,75,76,180,76v66,0,122,-37,122,-104v0,-153,-342,-120,-342,-337v0,-110,95,-197,228,-197v131,0,200,71,200,71r-45,82v0,0,-65,-61,-155,-61v-75,0,-128,47,-128,103v0,146,342,107,342,336v0,109,-84,199,-224,199v-150,0,-234,-93,-234,-93","w":546},"T":{"d":"247,0r0,-620r-242,0r0,-86r583,0r0,86r-242,0r0,620r-99,0","w":593},"U":{"d":"86,-250r0,-456r99,0r0,456v0,108,70,171,178,171v109,0,180,-63,180,-173r0,-454r99,0r0,456v0,157,-113,262,-278,262v-165,0,-278,-105,-278,-262","w":728},"V":{"d":"267,0r-261,-706r107,0r175,499v15,39,23,99,29,97v53,-195,140,-406,204,-596r105,0r-260,706r-99,0","w":632},"W":{"d":"428,-706r88,0r138,518v12,40,11,76,17,75v36,-199,98,-399,143,-593r102,0r-185,706r-115,0r-122,-458v-14,-46,-17,-102,-23,-100v-35,177,-99,382,-143,558r-115,0r-180,-706r102,0r125,518v11,39,9,77,15,75v0,0,5,-36,15,-75","w":948},"X":{"d":"22,0r223,-364r-209,-342r114,0r111,191v25,39,41,85,47,84v31,-69,111,-200,154,-275r114,0r-209,342r223,364r-112,0r-128,-217v-17,-26,-28,-58,-47,-81v-38,81,-121,214,-170,298r-111,0","w":612},"Y":{"d":"245,0r0,-299r-237,-407r112,0r131,232v25,40,39,90,45,89v39,-88,122,-229,172,-321r112,0r-236,407r0,299r-99,0","w":588},"Z":{"d":"41,0r0,-66r340,-490v27,-43,52,-62,51,-67v-106,7,-257,1,-373,3r0,-86r496,0r0,65r-340,491v-27,42,-52,61,-51,66r395,-2r0,86r-518,0","w":607},"[":{"d":"101,95r0,-830r165,0r0,73r-80,0r0,683r80,0r0,74r-165,0","w":301},"\\":{"d":"282,42r-254,-786r86,0r254,786r-86,0","w":404},"]":{"d":"35,21r81,0r0,-683r-81,0r0,-73r166,0r0,830r-166,0r0,-74","w":302},"^":{"d":"69,-247r200,-459r63,0r199,459r-87,0r-144,-352r-143,352r-88,0","w":613},"_":{"d":"28,0r538,0r0,78r-538,0r0,-78","w":594},"`":{"d":"256,-755r-95,-127r104,0r73,127r-82,0","w":499},"a":{"d":"35,-142v0,-167,220,-174,305,-174r22,0v3,-87,-44,-120,-111,-120v-78,0,-141,49,-141,49r-40,-71v0,0,73,-60,189,-60v128,0,200,70,200,198r0,320r-90,0v-1,-28,6,-64,0,-88v0,0,-41,100,-162,100v-87,0,-172,-53,-172,-154xm133,-147v0,41,32,81,95,81v87,0,140,-89,135,-177v-89,0,-230,-3,-230,96","w":528},"b":{"d":"76,0r0,-706r97,0r-2,274v6,1,41,-86,164,-86v136,0,222,108,222,265v0,161,-97,265,-230,265v-116,0,-155,-88,-161,-87v1,4,3,58,2,75r-92,0xm170,-251v0,90,47,180,143,180v80,0,146,-66,146,-181v0,-110,-59,-181,-143,-181v-76,0,-146,53,-146,182","w":600},"c":{"d":"40,-253v0,-150,112,-265,271,-265v127,0,190,74,190,74r-46,68v0,0,-54,-58,-140,-58v-102,0,-176,76,-176,180v0,103,74,182,179,182v94,0,156,-68,156,-68r39,71v0,0,-70,81,-202,81v-159,0,-271,-113,-271,-265","w":547},"d":{"d":"43,-253v0,-161,95,-265,229,-265v120,0,152,81,158,80v-5,-78,-1,-184,-2,-268r97,0r0,706r-92,0v-2,-26,5,-60,-1,-82v0,0,-41,94,-166,94v-137,0,-223,-108,-223,-265xm142,-253v0,110,59,181,143,181v75,0,146,-53,146,-182v0,-90,-47,-180,-143,-180v-80,0,-146,66,-146,181","w":601},"e":{"d":"41,-253v0,-161,109,-265,253,-265v157,0,234,124,216,279r-369,0v5,111,84,167,174,167v87,0,150,-59,150,-59r40,71v0,0,-75,72,-196,72v-159,0,-268,-115,-268,-265xm144,-312r270,0v-3,-87,-57,-129,-122,-129v-74,0,-134,46,-148,129","w":555},"f":{"d":"103,0r0,-421r-63,0r0,-78r63,0r0,-24v0,-167,126,-188,190,-188v22,0,37,3,37,3r0,83v-58,-6,-125,-1,-131,104r0,22r120,0r0,78r-120,0r0,421r-96,0","w":336},"g":{"d":"121,92v0,0,63,34,139,34v101,0,173,-54,160,-179v-2,-17,4,-34,-1,-32v-30,50,-77,79,-150,79v-141,0,-226,-113,-226,-259v0,-145,81,-253,221,-253v125,0,155,76,161,75v-2,-14,-1,-45,-1,-63r93,0r0,485v-1,239,-258,273,-428,189xm288,-90v70,0,134,-42,134,-174v0,-132,-64,-170,-143,-170v-88,0,-138,64,-138,167v0,105,56,177,147,177","w":593},"h":{"d":"341,-429v-96,0,-168,77,-168,192r0,237r-97,0r0,-706r97,0r-2,301r2,0v22,-49,86,-113,187,-113v119,0,174,65,174,194r0,324r-97,0r0,-302v0,-71,-15,-127,-96,-127","w":603},"i":{"d":"75,-607r0,-99r98,0r0,99r-98,0xm76,0r0,-506r97,0r0,506r-97,0","w":249},"j":{"d":"75,-607r0,-99r98,0r0,99r-98,0xm76,-506r96,0r0,523v0,169,-130,189,-193,189v-21,0,-34,-2,-34,-2r0,-83v58,4,131,-1,131,-110r0,-517","w":248},"k":{"d":"76,0r0,-706r97,0r0,386r71,0r138,-186r110,0r-168,225r187,281r-113,0r-152,-238r-73,0r0,238r-97,0","w":526},"l":{"d":"70,-138r0,-568r97,0r0,551v2,69,27,75,71,71r0,86v-81,6,-168,2,-168,-140","w":265},"m":{"d":"324,-430v-92,0,-151,88,-151,199r0,231r-97,0r0,-506r94,0v1,33,-6,75,0,104v24,-59,95,-116,174,-116v88,0,132,43,154,115v28,-61,98,-115,180,-115v114,0,167,65,167,194r0,324r-97,0r0,-303v0,-71,-14,-127,-90,-127v-92,0,-149,89,-149,199r0,231r-97,0r0,-303v0,-66,-10,-127,-88,-127","w":914},"n":{"d":"341,-429v-98,0,-168,76,-168,192r0,237r-97,0r0,-506r94,0v1,33,-6,75,0,104v20,-44,80,-116,190,-116v119,0,174,65,174,194r0,324r-97,0r0,-302v0,-71,-15,-127,-96,-127","w":603},"o":{"d":"39,-254v0,-153,122,-264,273,-264v151,0,273,111,273,264v0,154,-122,266,-273,266v-151,0,-273,-112,-273,-266xm138,-254v0,106,79,182,174,182v96,0,174,-76,174,-182v0,-105,-78,-180,-174,-180v-95,0,-174,75,-174,180","w":624},"p":{"d":"76,200r0,-706r89,0v1,25,-5,59,0,80v0,0,43,-92,170,-92v136,0,222,108,222,265v0,161,-97,265,-229,265v-114,0,-151,-84,-157,-83r2,271r-97,0xm170,-251v0,90,50,180,143,180v80,0,146,-66,146,-181v0,-110,-59,-181,-143,-181v-76,0,-146,53,-146,182","w":600},"q":{"d":"43,-253v0,-161,95,-265,229,-265v120,0,156,86,162,85r-1,-73r92,0r0,706r-97,0r2,-275v-6,-1,-40,87,-164,87v-137,0,-223,-108,-223,-265xm142,-253v0,110,59,181,143,181v75,0,146,-53,146,-182v0,-90,-47,-180,-143,-180v-80,0,-146,66,-146,181","w":601},"r":{"d":"355,-414v-110,-23,-182,84,-182,207r0,207r-97,0r0,-506r94,0v2,41,-6,89,0,126v27,-81,89,-143,185,-130r0,96","w":375},"s":{"d":"35,-62r47,-69v0,0,57,59,145,59v42,0,84,-22,84,-63v0,-93,-260,-74,-260,-239v0,-92,82,-144,183,-144v111,0,163,56,163,56r-39,73v0,0,-45,-45,-125,-45v-42,0,-83,18,-83,62v0,91,260,71,260,237v0,84,-72,147,-183,147v-124,0,-192,-74,-192,-74","w":448},"t":{"d":"97,-185r0,-236r-66,0r0,-78r69,0r0,-146r94,0r0,146r122,0r0,78r-122,0r0,225v7,111,72,118,131,112r0,86v0,0,-14,2,-34,2v-65,0,-194,-20,-194,-189","w":358},"u":{"d":"69,-182r0,-324r97,0r0,302v0,70,14,126,95,126v103,0,164,-91,164,-191r0,-237r97,0r0,506r-94,0v-1,-33,6,-75,0,-104v-21,50,-87,116,-186,116v-114,0,-173,-60,-173,-194","w":598},"v":{"d":"196,0r-189,-506r103,0r123,342v12,29,12,71,19,69v35,-136,97,-280,141,-411r102,0r-187,506r-112,0","w":502},"w":{"d":"180,0r-163,-506r103,0r105,355v10,27,8,56,15,54v32,-132,85,-278,123,-408r89,0r109,354v10,27,10,56,16,54v30,-133,82,-278,118,-409r102,0r-163,506r-107,0r-105,-325v-10,-27,-10,-57,-16,-55v-31,122,-81,259,-118,380r-108,0","w":814},"x":{"d":"270,-169v-9,-13,-12,-29,-17,-28v-35,64,-83,134,-121,197r-110,0r172,-260r-163,-246r111,0r111,184v5,1,10,-15,19,-30r94,-154r111,0r-163,246r172,260r-110,0","w":508},"y":{"d":"5,179r34,-74v0,0,28,21,59,21v62,0,95,-78,116,-132r-212,-500r109,0r127,331v12,27,15,63,21,61v36,-128,96,-267,140,-392r105,0r-237,597v-31,78,-93,119,-164,119v-57,0,-98,-31,-98,-31","w":510},"z":{"d":"39,0r0,-56r255,-320v23,-30,43,-44,42,-49r-286,2r0,-83r417,0r0,56r-255,321v-22,29,-44,43,-43,48r307,-2r0,83r-437,0","w":517},"{":{"d":"134,-77r0,-96v0,-102,-85,-109,-85,-109r0,-86v0,0,85,-7,85,-111r0,-84v0,-158,114,-174,162,-174v14,0,23,1,23,1r0,74v-46,-1,-92,2,-100,105r0,103v0,102,-83,123,-81,129v0,0,81,24,81,127r0,115v7,103,56,106,100,105r0,74v0,0,-9,2,-23,2v-48,0,-162,-16,-162,-175","w":350},"|":{"d":"99,159r0,-951r85,0r0,951r-85,0","w":283},"}":{"d":"31,22v46,1,100,-2,100,-105r0,-115v0,-106,83,-123,81,-129v0,0,-81,-28,-81,-127r0,-103v-7,-103,-56,-106,-100,-105r0,-74v0,0,9,-1,23,-1v48,0,162,16,162,174r0,84v0,104,85,111,85,111r0,86v0,0,-85,7,-85,109r0,96v0,159,-114,175,-162,175v-14,0,-23,-2,-23,-2r0,-74","w":350},"~":{"d":"67,-204v0,-116,53,-169,140,-169v105,0,116,98,191,98v53,0,67,-52,67,-94r79,0v0,117,-53,169,-139,169v-105,0,-116,-97,-192,-97v-52,0,-67,52,-67,93r-79,0","w":608},"\u00a1":{"d":"94,-409r0,-97r99,0r0,97r-99,0xm94,200r7,-512r87,0r6,512r-100,0","w":289},"\u00a2":{"d":"264,13r0,-86v-132,-18,-211,-136,-211,-280v0,-145,79,-263,211,-281r0,-84r71,0r0,84v88,13,154,72,188,155r-88,34v-25,-56,-67,-99,-133,-99v-96,0,-150,83,-150,191v0,111,51,190,150,190v65,0,108,-42,133,-99r88,35v-32,74,-94,144,-188,154r0,86r-71,0","w":576},"\u00a3":{"d":"73,-319r0,-70r44,0r0,-136v0,-111,91,-193,217,-193v101,0,167,64,167,64r-57,69v0,0,-48,-43,-109,-43v-74,0,-118,48,-118,107r0,132r184,0r0,70r-184,0r0,233r325,0r0,86r-486,0r0,-86r61,0r0,-233r-44,0","w":591},"\u00a5":{"d":"90,-347r0,-63r103,0r-165,-296r113,0r118,220v25,48,39,103,45,102v29,-84,115,-236,162,-322r113,0r-166,296r102,0r0,63r-135,0r-27,48r0,37r162,0r0,63r-162,0r0,199r-100,0r0,-199r-163,0r0,-63r163,0r0,-37r-27,-48r-136,0","w":607},"\u00a7":{"d":"139,-111r-70,-390v-28,-123,49,-216,183,-217v86,0,141,51,141,51r-46,64v0,0,-40,-34,-95,-34v-74,0,-116,58,-101,141r68,385r-80,0xm48,11r44,-67v0,0,41,37,97,37v75,0,115,-63,100,-150r-66,-376r79,0r70,390v25,126,-50,217,-183,217v-87,0,-141,-51,-141,-51","w":442},"\u00a8":{"d":"293,-781r0,-101r80,0r0,101r-80,0xm126,-781r0,-101r80,0r0,101r-80,0","w":499},"\u00a9":{"d":"54,-353v0,-203,158,-365,355,-365v199,0,358,162,358,365v0,203,-159,365,-358,365v-197,0,-355,-162,-355,-365xm127,-353v0,167,123,297,282,297v161,0,285,-130,285,-297v0,-167,-124,-297,-285,-297v-159,0,-282,130,-282,297xm219,-352v0,-105,76,-200,197,-200v115,0,163,99,163,99r-61,33v0,0,-34,-63,-99,-63v-79,0,-124,62,-124,131v0,71,43,131,124,131v66,0,99,-63,99,-63r61,33v0,0,-48,99,-163,99v-121,0,-197,-94,-197,-200"},"\u00aa":{"d":"182,-382v-53,0,-108,-34,-108,-97v0,-111,134,-110,198,-110v2,-50,-25,-70,-64,-69v-43,0,-83,28,-83,28r-29,-49v0,0,45,-37,121,-37v83,0,127,45,127,126r0,201r-68,0v-2,-14,4,-36,-2,-46v0,0,-27,53,-92,53xm197,-441v48,0,77,-48,75,-97v-47,0,-126,-1,-126,54v0,23,18,43,51,43xm73,-265r0,-57r275,0r0,57r-275,0","w":422},"\u00ab":{"d":"245,-282r164,-206r97,0r-164,206r164,205r-97,0xm208,-77r-164,-205r164,-206r97,0r-164,206r164,205r-97,0","w":556},"\u00ac":{"d":"60,-340r0,-78r477,0r0,267r-81,0r0,-189r-396,0","w":614},"\u00ae":{"d":"54,-353v0,-203,158,-365,355,-365v199,0,358,162,358,365v0,203,-159,365,-358,365v-197,0,-355,-162,-355,-365xm127,-353v0,167,123,297,282,297v161,0,285,-130,285,-297v0,-167,-124,-297,-285,-297v-159,0,-282,130,-282,297xm287,-166r0,-377r145,0v71,0,119,45,119,115v0,61,-41,89,-69,102v28,44,58,111,85,160r-78,0r-70,-146r-61,0r0,146r-71,0xm358,-364v65,4,121,1,121,-64v0,-63,-58,-64,-121,-61r0,125"},"\u00af":{"d":"122,-784r0,-70r255,0r0,70r-255,0","w":499},"\u00b0":{"d":"194,-422v-84,0,-151,-66,-151,-148v0,-81,67,-148,151,-148v84,0,152,67,152,148v0,82,-68,148,-152,148xm194,-496v42,0,74,-33,74,-74v0,-41,-32,-75,-74,-75v-42,0,-74,34,-74,75v0,41,32,74,74,74","w":389},"\u00b1":{"d":"76,-246r0,-78r224,0r0,-246r82,0r0,246r223,0r0,78r-223,0r0,246r-82,0r0,-246r-224,0xm92,95r497,0r0,78r-497,0r0,-78","w":681},"\u00b2":{"d":"50,-423v-1,-12,-3,-25,-3,-36v0,-169,212,-177,212,-277v0,-37,-30,-65,-72,-65v-49,0,-84,48,-84,48r-49,-45v0,0,45,-72,137,-72v82,0,144,52,144,131v0,146,-200,156,-206,250r213,0r0,66r-292,0","w":389},"\u00b3":{"d":"187,-413v-101,0,-147,-66,-147,-66r42,-53v0,0,36,50,102,50v42,0,83,-32,83,-76v0,-58,-59,-76,-123,-71r-16,-38r89,-103v9,-13,25,-21,24,-26v-46,6,-123,2,-177,3r0,-67r271,0r0,48r-109,126v60,9,117,48,117,128v0,77,-64,145,-156,145","w":389},"\u00b4":{"d":"161,-755r73,-127r104,0r-96,127r-81,0","w":499},"\u00b5":{"d":"83,200r0,-706r97,0r0,302v0,70,14,126,94,126v104,0,165,-91,165,-191r0,-237r97,0r0,506r-94,0r2,-104v-10,-2,-44,116,-189,116v-70,0,-88,-32,-93,-31v8,42,8,158,7,219r-86,0","w":619},"\u03bc":{"d":"83,200r0,-706r97,0r0,302v0,70,14,126,94,126v104,0,165,-91,165,-191r0,-237r97,0r0,506r-94,0r2,-104v-10,-2,-44,116,-189,116v-70,0,-88,-32,-93,-31v8,42,8,158,7,219r-86,0","w":619},"\u00b6":{"d":"280,50r0,-291v-129,0,-237,-102,-237,-233v0,-131,107,-232,236,-232r272,0r0,86r-196,0r0,670r-75,0xm417,50r0,-613r74,0r0,613r-74,0","w":590},"\u00b7":{"d":"88,-239r0,-103r99,0r0,103r-99,0","w":275},"\u00b8":{"d":"219,-23r49,10v-1,24,-8,42,-12,63v41,5,72,30,72,73v0,84,-100,93,-157,77r0,-58v0,0,20,7,42,7v25,0,48,-8,48,-31v0,-26,-41,-34,-71,-30","w":499},"\u00b9":{"d":"71,-423r0,-66r93,0r2,-275v-8,7,-40,44,-55,56r-46,-49r106,-103r68,0r0,371r91,0r0,66r-259,0","w":389},"\u00ba":{"d":"233,-384v-95,0,-171,-70,-171,-168v0,-95,76,-165,170,-165v95,0,172,70,172,165v0,98,-77,168,-171,168xm233,-448v54,0,98,-43,98,-104v0,-59,-44,-101,-98,-101v-55,0,-99,42,-99,101v0,61,44,104,99,104xm78,-265r0,-57r312,0r0,57r-312,0","w":467},"\u00bb":{"d":"252,-77r164,-205r-164,-206r97,0r164,206r-164,205r-97,0xm50,-77r164,-205r-164,-206r97,0r164,206r-164,205r-97,0","w":557},"\u00bc":{"d":"336,0r-75,0r336,-706r75,0xm59,-269r0,-66r93,0r2,-275v-8,7,-40,44,-55,56r-46,-49r106,-103r68,0r0,371r91,0r0,66r-259,0xm778,0r0,-107r-208,0r0,-50r201,-280r81,0r0,264r61,0r0,66r-61,0r0,107r-74,0xm652,-173r126,0r0,-123v-2,-27,7,-60,1,-58v-27,54,-92,126,-127,181","w":967},"\u00bd":{"d":"338,0r-75,0r336,-706r75,0xm59,-269r0,-66r93,0r2,-275v-8,7,-40,44,-55,56r-46,-49r106,-103r68,0r0,371r91,0r0,66r-259,0xm603,0v-1,-12,-3,-25,-3,-36v0,-169,212,-177,212,-277v0,-37,-30,-65,-72,-65v-49,0,-84,48,-84,48r-49,-45v0,0,45,-72,137,-72v82,0,144,52,144,131v0,146,-200,156,-206,250r213,0r0,66r-292,0","w":961},"\u00be":{"d":"348,0r-75,0r336,-706r75,0xm790,0r0,-107r-208,0r0,-50r201,-280r81,0r0,264r61,0r0,66r-61,0r0,107r-74,0xm664,-173r126,0r0,-123v-2,-27,7,-60,1,-58v-27,54,-92,126,-127,181xm187,-259v-101,0,-147,-66,-147,-66r42,-53v0,0,36,50,102,50v42,0,83,-32,83,-76v0,-58,-59,-76,-123,-71r-16,-38r89,-103v9,-13,25,-21,24,-26v-46,6,-123,2,-177,3r0,-67r271,0r0,48r-109,126v60,9,117,48,117,128v0,77,-64,145,-156,145","w":979},"\u00bf":{"d":"214,-409r0,-97r99,0r0,97r-99,0xm39,28v0,-183,200,-173,177,-340r94,0r0,43v0,152,-169,175,-169,289v0,56,48,100,114,100v63,0,114,-43,114,-43r53,69v0,0,-65,64,-174,64v-113,0,-209,-71,-209,-182","w":450},"\u00c0":{"d":"517,0r-71,-203r-266,0r-70,203r-102,0r254,-706r104,0r254,706r-103,0xm342,-509v-14,-37,-23,-102,-29,-100v-21,89,-75,233,-107,324r214,0xm275,-755r-95,-127r104,0r73,127r-82,0","w":628},"\u00c1":{"d":"517,0r-71,-203r-266,0r-70,203r-102,0r254,-706r104,0r254,706r-103,0xm342,-509v-14,-37,-23,-102,-29,-100v-21,89,-75,233,-107,324r214,0xm270,-755r73,-127r104,0r-96,127r-81,0","w":628},"\u00c2":{"d":"517,0r-71,-203r-266,0r-70,203r-102,0r254,-706r104,0r254,706r-103,0xm342,-509v-14,-37,-23,-102,-29,-100v-21,89,-75,233,-107,324r214,0xm175,-755r88,-127r101,0r88,127r-85,0v-19,-26,-33,-57,-55,-80r-52,80r-85,0","w":628},"\u00c3":{"d":"517,0r-71,-203r-266,0r-70,203r-102,0r254,-706r104,0r254,706r-103,0xm342,-509v-14,-37,-23,-102,-29,-100v-21,89,-75,233,-107,324r214,0xm146,-756v0,-84,34,-127,102,-127v67,0,83,68,126,68v30,0,39,-36,39,-65r70,0v0,83,-34,127,-102,127v-67,0,-83,-68,-126,-68v-30,0,-39,35,-39,65r-70,0","w":628},"\u00c4":{"d":"517,0r-71,-203r-266,0r-70,203r-102,0r254,-706r104,0r254,706r-103,0xm342,-509v-14,-37,-23,-102,-29,-100v-21,89,-75,233,-107,324r214,0xm358,-781r0,-101r80,0r0,101r-80,0xm191,-781r0,-101r80,0r0,101r-80,0","w":628},"\u00c5":{"d":"517,0r-71,-203r-266,0r-70,203r-102,0r254,-706r104,0r254,706r-103,0xm342,-509v-14,-37,-23,-102,-29,-100v-21,89,-75,233,-107,324r214,0xm314,-743v-45,0,-85,-28,-85,-74v0,-47,40,-75,85,-75v44,0,85,28,85,75v0,46,-41,74,-85,74xm314,-784v19,0,33,-14,33,-33v0,-21,-14,-35,-33,-35v-20,0,-33,14,-33,35v0,19,13,33,33,33","w":628},"\u00c6":{"d":"4,0r292,-706r516,0r0,86r-312,0r0,221r254,0r0,86r-254,0r0,227r329,0r0,86r-427,0r0,-314r-169,0r-126,314r-103,0xm356,-620r-90,224r136,0r0,-224r-46,0","w":878},"\u00c7":{"d":"50,-357v0,-205,154,-361,359,-361v170,0,257,93,257,93r-49,74v0,0,-82,-77,-204,-77v-158,0,-261,120,-261,270v0,151,105,279,262,279v133,0,218,-92,218,-92r53,71v0,0,-92,105,-259,112r-8,38v41,5,72,30,72,73v0,84,-100,93,-157,77r0,-58v0,0,20,7,42,7v25,0,48,-8,48,-31v0,-26,-41,-34,-71,-30r20,-78v-191,-18,-322,-173,-322,-367","w":724},"\u00c8":{"d":"96,0r0,-706r410,0r0,86r-311,0r0,221r253,0r0,86r-253,0r0,227r328,0r0,86r-427,0xm273,-755r-95,-127r104,0r73,127r-82,0","w":573},"\u00c9":{"d":"96,0r0,-706r410,0r0,86r-311,0r0,221r253,0r0,86r-253,0r0,227r328,0r0,86r-427,0xm269,-755r73,-127r104,0r-96,127r-81,0","w":573},"\u00ca":{"d":"96,0r0,-706r410,0r0,86r-311,0r0,221r253,0r0,86r-253,0r0,227r328,0r0,86r-427,0xm174,-755r88,-127r101,0r88,127r-85,0v-19,-26,-33,-57,-55,-80r-52,80r-85,0","w":573},"\u00cb":{"d":"96,0r0,-706r410,0r0,86r-311,0r0,221r253,0r0,86r-253,0r0,227r328,0r0,86r-427,0xm356,-781r0,-101r80,0r0,101r-80,0xm189,-781r0,-101r80,0r0,101r-80,0","w":573},"\u00cc":{"d":"96,0r0,-706r99,0r0,706r-99,0xm107,-755r-95,-127r104,0r73,127r-82,0","w":291},"\u00cd":{"d":"96,0r0,-706r99,0r0,706r-99,0xm103,-755r73,-127r104,0r-96,127r-81,0","w":291},"\u00ce":{"d":"96,0r0,-706r99,0r0,706r-99,0xm7,-755r88,-127r101,0r88,127r-85,0v-19,-26,-33,-57,-55,-80r-52,80r-85,0","w":291},"\u00cf":{"d":"96,0r0,-706r99,0r0,706r-99,0xm190,-781r0,-101r80,0r0,101r-80,0xm23,-781r0,-101r80,0r0,101r-80,0","w":291},"\u00d0":{"d":"115,0r0,-312r-59,0r0,-82r59,0r0,-312r234,0v216,0,358,129,358,352v0,224,-142,354,-358,354r-234,0xm214,-86r128,0v159,0,263,-94,263,-268v0,-173,-105,-266,-263,-266r-128,0r0,226r149,0r0,82r-149,0r0,226","w":759},"\u00d1":{"d":"96,0r0,-706r98,0r314,459v29,39,55,104,61,102v-14,-156,-4,-387,-7,-561r99,0r0,706r-97,0r-315,-458v-29,-40,-55,-105,-61,-103v14,155,4,387,7,561r-99,0xm210,-756v0,-84,34,-127,102,-127v67,0,83,68,126,68v30,0,39,-36,39,-65r70,0v0,83,-34,127,-102,127v-67,0,-83,-68,-126,-68v-30,0,-39,35,-39,65r-70,0","w":757},"\u00d2":{"d":"48,-358v0,-203,159,-360,363,-360v204,0,362,157,362,360v0,208,-158,370,-362,370v-204,0,-363,-162,-363,-370xm150,-358v0,159,117,279,261,279v144,0,260,-120,260,-279v0,-154,-116,-270,-260,-270v-144,0,-261,116,-261,270xm372,-755r-95,-127r104,0r73,127r-82,0"},"\u00d3":{"d":"48,-358v0,-203,159,-360,363,-360v204,0,362,157,362,360v0,208,-158,370,-362,370v-204,0,-363,-162,-363,-370xm150,-358v0,159,117,279,261,279v144,0,260,-120,260,-279v0,-154,-116,-270,-260,-270v-144,0,-261,116,-261,270xm368,-755r73,-127r104,0r-96,127r-81,0"},"\u00d4":{"d":"48,-358v0,-203,159,-360,363,-360v204,0,362,157,362,360v0,208,-158,370,-362,370v-204,0,-363,-162,-363,-370xm150,-358v0,159,117,279,261,279v144,0,260,-120,260,-279v0,-154,-116,-270,-260,-270v-144,0,-261,116,-261,270xm272,-755r88,-127r101,0r88,127r-85,0v-19,-26,-33,-57,-55,-80r-52,80r-85,0"},"\u00d5":{"d":"48,-358v0,-203,159,-360,363,-360v204,0,362,157,362,360v0,208,-158,370,-362,370v-204,0,-363,-162,-363,-370xm150,-358v0,159,117,279,261,279v144,0,260,-120,260,-279v0,-154,-116,-270,-260,-270v-144,0,-261,116,-261,270xm243,-756v0,-84,34,-127,102,-127v67,0,83,68,126,68v30,0,39,-36,39,-65r70,0v0,83,-34,127,-102,127v-67,0,-83,-68,-126,-68v-30,0,-39,35,-39,65r-70,0"},"\u00d6":{"d":"48,-358v0,-203,159,-360,363,-360v204,0,362,157,362,360v0,208,-158,370,-362,370v-204,0,-363,-162,-363,-370xm150,-358v0,159,117,279,261,279v144,0,260,